digraph Tree {
node [shape=box, style="filled", color="black"] ;
0 [label=" AU12_r <= 0.533\ngini = 0.5\nsamples = 22055\nvalue = [11027.5, 11027.5]\nclass = Not Engaged", fillcolor="#ffffff"] ;
1 [label=" AU04_r <= -0.126\ngini = 0.485\nsamples = 17093\nvalue = [10212.268, 7206.089]\nclass = Not Engaged", fillcolor="#f7dac5"] ;
0 -> 1 [labeldistance=2.5, labelangle=45, headlabel="True"] ;
2 [label=" AU05_c <= 0.688\ngini = 0.499\nsamples = 9874\nvalue = [4723.188, 5109.05]\nclass = Engaged", fillcolor="#f0f8fd"] ;
1 -> 2 ;
3 [label=" AU12_c <= 1.164\ngini = 0.496\nsamples = 7469\nvalue = [4106.437, 3435.209]\nclass = Not Engaged", fillcolor="#fbeadf"] ;
2 -> 3 ;
4 [label=" AU04_r <= -0.709\ngini = 0.493\nsamples = 7222\nvalue = [4088.496, 3226.769]\nclass = Not Engaged", fillcolor="#fae4d5"] ;
3 -> 4 ;
5 [label=" AU12_r <= -0.046\ngini = 0.5\nsamples = 4667\nvalue = [2371.686, 2302.772]\nclass = Not Engaged", fillcolor="#fefbf9"] ;
4 -> 5 ;
6 [label=" AU06_r <= 0.184\ngini = 0.497\nsamples = 3894\nvalue = [2118.258, 1809.192]\nclass = Not Engaged", fillcolor="#fbede2"] ;
5 -> 6 ;
7 [label=" gaze_1_z <= 0.423\ngini = 0.499\nsamples = 3589\nvalue = [1887.257, 1719.86]\nclass = Not Engaged", fillcolor="#fdf4ed"] ;
6 -> 7 ;
8 [label=" p_8 <= -0.267\ngini = 0.5\nsamples = 2770\nvalue = [1353.487, 1410.358]\nclass = Engaged", fillcolor="#f7fbfe"] ;
7 -> 8 ;
9 [label=" AU10_r <= 0.421\ngini = 0.487\nsamples = 1045\nvalue = [429.483, 597.349]\nclass = Engaged", fillcolor="#c7e3f8"] ;
8 -> 9 ;
10 [label=" AU09_r <= -0.553\ngini = 0.479\nsamples = 970\nvalue = [376.779, 572.084]\nclass = Engaged", fillcolor="#bbdef6"] ;
9 -> 10 ;
11 [label=" AU14_r <= -0.707\ngini = 0.492\nsamples = 684\nvalue = [294.919, 379.885]\nclass = Engaged", fillcolor="#d3e9f9"] ;
10 -> 11 ;
12 [label=" p_11 <= -0.362\ngini = 0.5\nsamples = 482\nvalue = [233.244, 247.241]\nclass = Engaged", fillcolor="#f4f9fe"] ;
11 -> 12 ;
13 [label=" p_6 <= -0.737\ngini = 0.478\nsamples = 218\nvalue = [84.102, 129.035]\nclass = Engaged", fillcolor="#baddf6"] ;
12 -> 13 ;
14 [label=" p_27 <= -0.273\ngini = 0.296\nsamples = 53\nvalue = [8.971, 40.605]\nclass = Engaged", fillcolor="#65b3eb"] ;
13 -> 14 ;
15 [label=" p_2 <= 0.097\ngini = 0.492\nsamples = 13\nvalue = [5.607, 7.219]\nclass = Engaged", fillcolor="#d3e9f9"] ;
14 -> 15 ;
16 [label="gini = -0.0\nsamples = 7\nvalue = [0.0, 6.316]\nclass = Engaged", fillcolor="#399de5"] ;
15 -> 16 ;
17 [label=" p_16 <= -0.012\ngini = 0.239\nsamples = 6\nvalue = [5.607, 0.902]\nclass = Not Engaged", fillcolor="#e99559"] ;
15 -> 17 ;
18 [label=" p_11 <= -1.248\ngini = 0.0\nsamples = 5\nvalue = [5.607, 0.0]\nclass = Not Engaged", fillcolor="#e58139"] ;
17 -> 18 ;
19 [label="gini = 0.0\nsamples = 1\nvalue = [1.121, 0.0]\nclass = Not Engaged", fillcolor="#e58139"] ;
18 -> 19 ;
20 [label="gini = 0.0\nsamples = 4\nvalue = [4.485, 0.0]\nclass = Not Engaged", fillcolor="#e58139"] ;
18 -> 20 ;
21 [label="gini = -0.0\nsamples = 1\nvalue = [0.0, 0.902]\nclass = Engaged", fillcolor="#399de5"] ;
17 -> 21 ;
22 [label=" p_13 <= 1.151\ngini = 0.166\nsamples = 40\nvalue = [3.364, 33.387]\nclass = Engaged", fillcolor="#4da7e8"] ;
14 -> 22 ;
23 [label=" AU20_r <= 2.674\ngini = 0.118\nsamples = 39\nvalue = [2.243, 33.387]\nclass = Engaged", fillcolor="#46a4e7"] ;
22 -> 23 ;
24 [label=" p_26 <= -1.223\ngini = 0.063\nsamples = 38\nvalue = [1.121, 33.387]\nclass = Engaged", fillcolor="#40a0e6"] ;
23 -> 24 ;
25 [label="gini = 0.0\nsamples = 1\nvalue = [1.121, 0.0]\nclass = Not Engaged", fillcolor="#e58139"] ;
24 -> 25 ;
26 [label="gini = 0.0\nsamples = 37\nvalue = [0.0, 33.387]\nclass = Engaged", fillcolor="#399de5"] ;
24 -> 26 ;
27 [label="gini = -0.0\nsamples = 1\nvalue = [1.121, 0.0]\nclass = Not Engaged", fillcolor="#e58139"] ;
23 -> 27 ;
28 [label="gini = -0.0\nsamples = 1\nvalue = [1.121, 0.0]\nclass = Not Engaged", fillcolor="#e58139"] ;
22 -> 28 ;
29 [label=" p_27 <= -0.488\ngini = 0.497\nsamples = 165\nvalue = [75.131, 88.429]\nclass = Engaged", fillcolor="#e1f0fb"] ;
13 -> 29 ;
30 [label="gini = 0.0\nsamples = 11\nvalue = [0.0, 9.926]\nclass = Engaged", fillcolor="#399de5"] ;
29 -> 30 ;
31 [label=" p_24 <= 0.952\ngini = 0.5\nsamples = 154\nvalue = [75.131, 78.504]\nclass = Engaged", fillcolor="#f6fbfe"] ;
29 -> 31 ;
32 [label=" p_18 <= 0.093\ngini = 0.488\nsamples = 124\nvalue = [51.583, 70.383]\nclass = Engaged", fillcolor="#cae5f8"] ;
31 -> 32 ;
33 [label=" p_19 <= 1.308\ngini = 0.5\nsamples = 89\nvalue = [44.855, 44.215]\nclass = Not Engaged", fillcolor="#fffdfc"] ;
32 -> 33 ;
34 [label=" p_9 <= -0.19\ngini = 0.494\nsamples = 80\nvalue = [44.855, 36.094]\nclass = Not Engaged", fillcolor="#fae6d8"] ;
33 -> 34 ;
35 [label=" p_19 <= 0.872\ngini = 0.334\nsamples = 24\nvalue = [20.185, 5.414]\nclass = Not Engaged", fillcolor="#eca36e"] ;
34 -> 35 ;
36 [label=" p_11 <= -0.392\ngini = 0.091\nsamples = 17\nvalue = [17.942, 0.902]\nclass = Not Engaged", fillcolor="#e68743"] ;
35 -> 36 ;
37 [label="gini = 0.0\nsamples = 16\nvalue = [17.942, 0.0]\nclass = Not Engaged", fillcolor="#e58139"] ;
36 -> 37 ;
38 [label="gini = -0.0\nsamples = 1\nvalue = [0.0, 0.902]\nclass = Engaged", fillcolor="#399de5"] ;
36 -> 38 ;
39 [label=" p_24 <= 0.169\ngini = 0.444\nsamples = 7\nvalue = [2.243, 4.512]\nclass = Engaged", fillcolor="#9bcef2"] ;
35 -> 39 ;
40 [label="gini = 0.0\nsamples = 2\nvalue = [2.243, 0.0]\nclass = Not Engaged", fillcolor="#e58139"] ;
39 -> 40 ;
41 [label=" AU45_r <= -0.471\ngini = 0.0\nsamples = 5\nvalue = [0.0, 4.512]\nclass = Engaged", fillcolor="#399de5"] ;
39 -> 41 ;
42 [label="gini = 0.0\nsamples = 4\nvalue = [0.0, 3.609]\nclass = Engaged", fillcolor="#399de5"] ;
41 -> 42 ;
43 [label="gini = 0.0\nsamples = 1\nvalue = [0.0, 0.902]\nclass = Engaged", fillcolor="#399de5"] ;
41 -> 43 ;
44 [label=" p_15 <= 1.529\ngini = 0.494\nsamples = 56\nvalue = [24.67, 30.68]\nclass = Engaged", fillcolor="#d8ecfa"] ;
34 -> 44 ;
45 [label=" p_5 <= -0.615\ngini = 0.473\nsamples = 51\nvalue = [19.063, 30.68]\nclass = Engaged", fillcolor="#b4daf5"] ;
44 -> 45 ;
46 [label=" AU17_r <= -0.861\ngini = 0.256\nsamples = 24\nvalue = [3.364, 18.949]\nclass = Engaged", fillcolor="#5caeea"] ;
45 -> 46 ;
47 [label=" p_16 <= -0.267\ngini = 0.489\nsamples = 8\nvalue = [3.364, 4.512]\nclass = Engaged", fillcolor="#cde6f8"] ;
46 -> 47 ;
48 [label="gini = 0.0\nsamples = 3\nvalue = [3.364, 0.0]\nclass = Not Engaged", fillcolor="#e58139"] ;
47 -> 48 ;
49 [label="gini = 0.0\nsamples = 5\nvalue = [0.0, 4.512]\nclass = Engaged", fillcolor="#399de5"] ;
47 -> 49 ;
50 [label="gini = -0.0\nsamples = 16\nvalue = [0.0, 14.437]\nclass = Engaged", fillcolor="#399de5"] ;
46 -> 50 ;
51 [label=" AU15_r <= -0.273\ngini = 0.49\nsamples = 27\nvalue = [15.699, 11.73]\nclass = Not Engaged", fillcolor="#f8dfcd"] ;
45 -> 51 ;
52 [label=" p_24 <= 0.053\ngini = 0.463\nsamples = 19\nvalue = [6.728, 11.73]\nclass = Engaged", fillcolor="#abd5f4"] ;
51 -> 52 ;
53 [label=" AU25_r <= 0.878\ngini = 0.284\nsamples = 14\nvalue = [2.243, 10.828]\nclass = Engaged", fillcolor="#62b1ea"] ;
52 -> 53 ;
54 [label="gini = -0.0\nsamples = 12\nvalue = [0.0, 10.828]\nclass = Engaged", fillcolor="#399de5"] ;
53 -> 54 ;
55 [label=" p_15 <= 0.115\ngini = 0.0\nsamples = 2\nvalue = [2.243, 0.0]\nclass = Not Engaged", fillcolor="#e58139"] ;
53 -> 55 ;
56 [label="gini = 0.0\nsamples = 1\nvalue = [1.121, 0.0]\nclass = Not Engaged", fillcolor="#e58139"] ;
55 -> 56 ;
57 [label="gini = 0.0\nsamples = 1\nvalue = [1.121, 0.0]\nclass = Not Engaged", fillcolor="#e58139"] ;
55 -> 57 ;
58 [label=" AU45_r <= 0.31\ngini = 0.279\nsamples = 5\nvalue = [4.485, 0.902]\nclass = Not Engaged", fillcolor="#ea9a61"] ;
52 -> 58 ;
59 [label=" p_18 <= -0.336\ngini = 0.0\nsamples = 4\nvalue = [4.485, 0.0]\nclass = Not Engaged", fillcolor="#e58139"] ;
58 -> 59 ;
60 [label="gini = 0.0\nsamples = 1\nvalue = [1.121, 0.0]\nclass = Not Engaged", fillcolor="#e58139"] ;
59 -> 60 ;
61 [label="gini = 0.0\nsamples = 3\nvalue = [3.364, 0.0]\nclass = Not Engaged", fillcolor="#e58139"] ;
59 -> 61 ;
62 [label="gini = -0.0\nsamples = 1\nvalue = [0.0, 0.902]\nclass = Engaged", fillcolor="#399de5"] ;
58 -> 62 ;
63 [label="gini = 0.0\nsamples = 8\nvalue = [8.971, 0.0]\nclass = Not Engaged", fillcolor="#e58139"] ;
51 -> 63 ;
64 [label="gini = -0.0\nsamples = 5\nvalue = [5.607, 0.0]\nclass = Not Engaged", fillcolor="#e58139"] ;
44 -> 64 ;
65 [label="gini = -0.0\nsamples = 9\nvalue = [0.0, 8.121]\nclass = Engaged", fillcolor="#399de5"] ;
33 -> 65 ;
66 [label=" gaze_1_z <= 0.272\ngini = 0.325\nsamples = 35\nvalue = [6.728, 26.168]\nclass = Engaged", fillcolor="#6cb6ec"] ;
32 -> 66 ;
67 [label=" p_3 <= 1.212\ngini = 0.202\nsamples = 32\nvalue = [3.364, 26.168]\nclass = Engaged", fillcolor="#52aae8"] ;
66 -> 67 ;
68 [label="gini = 0.0\nsamples = 25\nvalue = [0.0, 22.559]\nclass = Engaged", fillcolor="#399de5"] ;
67 -> 68 ;
69 [label=" p_2 <= -0.836\ngini = 0.499\nsamples = 7\nvalue = [3.364, 3.609]\nclass = Engaged", fillcolor="#f2f8fd"] ;
67 -> 69 ;
70 [label="gini = -0.0\nsamples = 4\nvalue = [0.0, 3.609]\nclass = Engaged", fillcolor="#399de5"] ;
69 -> 70 ;
71 [label=" p_31 <= -0.024\ngini = 0.0\nsamples = 3\nvalue = [3.364, 0.0]\nclass = Not Engaged", fillcolor="#e58139"] ;
69 -> 71 ;
72 [label="gini = 0.0\nsamples = 1\nvalue = [1.121, 0.0]\nclass = Not Engaged", fillcolor="#e58139"] ;
71 -> 72 ;
73 [label="gini = 0.0\nsamples = 2\nvalue = [2.243, 0.0]\nclass = Not Engaged", fillcolor="#e58139"] ;
71 -> 73 ;
74 [label="gini = 0.0\nsamples = 3\nvalue = [3.364, 0.0]\nclass = Not Engaged", fillcolor="#e58139"] ;
66 -> 74 ;
75 [label=" p_1 <= 0.355\ngini = 0.381\nsamples = 30\nvalue = [23.549, 8.121]\nclass = Not Engaged", fillcolor="#eeac7d"] ;
31 -> 75 ;
76 [label=" p_13 <= -0.189\ngini = 0.473\nsamples = 12\nvalue = [4.485, 7.219]\nclass = Engaged", fillcolor="#b4daf5"] ;
75 -> 76 ;
77 [label="gini = -0.0\nsamples = 7\nvalue = [0.0, 6.316]\nclass = Engaged", fillcolor="#399de5"] ;
76 -> 77 ;
78 [label=" p_2 <= 1.031\ngini = 0.279\nsamples = 5\nvalue = [4.485, 0.902]\nclass = Not Engaged", fillcolor="#ea9a61"] ;
76 -> 78 ;
79 [label="gini = 0.0\nsamples = 4\nvalue = [4.485, 0.0]\nclass = Not Engaged", fillcolor="#e58139"] ;
78 -> 79 ;
80 [label="gini = -0.0\nsamples = 1\nvalue = [0.0, 0.902]\nclass = Engaged", fillcolor="#399de5"] ;
78 -> 80 ;
81 [label=" p_3 <= 1.62\ngini = 0.086\nsamples = 18\nvalue = [19.063, 0.902]\nclass = Not Engaged", fillcolor="#e68742"] ;
75 -> 81 ;
82 [label=" AU05_r <= -0.388\ngini = 0.0\nsamples = 17\nvalue = [19.063, 0.0]\nclass = Not Engaged", fillcolor="#e58139"] ;
81 -> 82 ;
83 [label="gini = 0.0\nsamples = 12\nvalue = [13.456, 0.0]\nclass = Not Engaged", fillcolor="#e58139"] ;
82 -> 83 ;
84 [label="gini = 0.0\nsamples = 5\nvalue = [5.607, 0.0]\nclass = Not Engaged", fillcolor="#e58139"] ;
82 -> 84 ;
85 [label="gini = -0.0\nsamples = 1\nvalue = [0.0, 0.902]\nclass = Engaged", fillcolor="#399de5"] ;
81 -> 85 ;
86 [label=" p_24 <= 1.105\ngini = 0.493\nsamples = 264\nvalue = [149.141, 118.207]\nclass = Not Engaged", fillcolor="#fae5d6"] ;
12 -> 86 ;
87 [label=" AU07_r <= -0.049\ngini = 0.485\nsamples = 242\nvalue = [144.656, 101.964]\nclass = Not Engaged", fillcolor="#f7dac5"] ;
86 -> 87 ;
88 [label=" p_3 <= 0.027\ngini = 0.472\nsamples = 219\nvalue = [139.049, 85.722]\nclass = Not Engaged", fillcolor="#f5cfb3"] ;
87 -> 88 ;
89 [label=" p_8 <= -0.566\ngini = 0.409\nsamples = 114\nvalue = [85.224, 34.289]\nclass = Not Engaged", fillcolor="#efb489"] ;
88 -> 89 ;
90 [label=" p_16 <= 0.018\ngini = 0.471\nsamples = 74\nvalue = [47.097, 28.875]\nclass = Not Engaged", fillcolor="#f5ceb2"] ;
89 -> 90 ;
91 [label=" p_16 <= -1.828\ngini = 0.49\nsamples = 66\nvalue = [38.126, 28.875]\nclass = Not Engaged", fillcolor="#f9e0cf"] ;
90 -> 91 ;
92 [label="gini = 0.0\nsamples = 6\nvalue = [6.728, 0.0]\nclass = Not Engaged", fillcolor="#e58139"] ;
91 -> 92 ;
93 [label=" p_13 <= 0.289\ngini = 0.499\nsamples = 60\nvalue = [31.398, 28.875]\nclass = Not Engaged", fillcolor="#fdf5ef"] ;
91 -> 93 ;
94 [label=" p_0 <= 0.768\ngini = 0.468\nsamples = 34\nvalue = [12.335, 20.754]\nclass = Engaged", fillcolor="#afd7f4"] ;
93 -> 94 ;
95 [label=" p_13 <= -0.541\ngini = 0.487\nsamples = 19\nvalue = [11.214, 8.121]\nclass = Not Engaged", fillcolor="#f8dcc8"] ;
94 -> 95 ;
96 [label="gini = 0.0\nsamples = 6\nvalue = [6.728, 0.0]\nclass = Not Engaged", fillcolor="#e58139"] ;
95 -> 96 ;
97 [label=" p_10 <= -1.022\ngini = 0.458\nsamples = 13\nvalue = [4.485, 8.121]\nclass = Engaged", fillcolor="#a6d3f3"] ;
95 -> 97 ;
98 [label=" p_7 <= 1.035\ngini = 0.279\nsamples = 5\nvalue = [4.485, 0.902]\nclass = Not Engaged", fillcolor="#ea9a61"] ;
97 -> 98 ;
99 [label="gini = 0.0\nsamples = 4\nvalue = [4.485, 0.0]\nclass = Not Engaged", fillcolor="#e58139"] ;
98 -> 99 ;
100 [label="gini = -0.0\nsamples = 1\nvalue = [0.0, 0.902]\nclass = Engaged", fillcolor="#399de5"] ;
98 -> 100 ;
101 [label="gini = -0.0\nsamples = 8\nvalue = [0.0, 7.219]\nclass = Engaged", fillcolor="#399de5"] ;
97 -> 101 ;
102 [label=" p_13 <= -1.648\ngini = 0.15\nsamples = 15\nvalue = [1.121, 12.633]\nclass = Engaged", fillcolor="#4ba6e7"] ;
94 -> 102 ;
103 [label="gini = 0.0\nsamples = 1\nvalue = [1.121, 0.0]\nclass = Not Engaged", fillcolor="#e58139"] ;
102 -> 103 ;
104 [label="gini = 0.0\nsamples = 14\nvalue = [0.0, 12.633]\nclass = Engaged", fillcolor="#399de5"] ;
102 -> 104 ;
105 [label=" p_8 <= -0.877\ngini = 0.419\nsamples = 26\nvalue = [19.063, 8.121]\nclass = Not Engaged", fillcolor="#f0b78d"] ;
93 -> 105 ;
106 [label=" p_12 <= -0.755\ngini = 0.473\nsamples = 12\nvalue = [4.485, 7.219]\nclass = Engaged", fillcolor="#b4daf5"] ;
105 -> 106 ;
107 [label="gini = 0.0\nsamples = 3\nvalue = [3.364, 0.0]\nclass = Not Engaged", fillcolor="#e58139"] ;
106 -> 107 ;
108 [label=" p_20 <= -1.538\ngini = 0.233\nsamples = 9\nvalue = [1.121, 7.219]\nclass = Engaged", fillcolor="#58ace9"] ;
106 -> 108 ;
109 [label="gini = 0.0\nsamples = 1\nvalue = [1.121, 0.0]\nclass = Not Engaged", fillcolor="#e58139"] ;
108 -> 109 ;
110 [label=" p_1 <= -0.381\ngini = 0.0\nsamples = 8\nvalue = [0.0, 7.219]\nclass = Engaged", fillcolor="#399de5"] ;
108 -> 110 ;
111 [label="gini = 0.0\nsamples = 1\nvalue = [0.0, 0.902]\nclass = Engaged", fillcolor="#399de5"] ;
110 -> 111 ;
112 [label="gini = 0.0\nsamples = 7\nvalue = [0.0, 6.316]\nclass = Engaged", fillcolor="#399de5"] ;
110 -> 112 ;
113 [label=" p_5 <= 1.876\ngini = 0.11\nsamples = 14\nvalue = [14.578, 0.902]\nclass = Not Engaged", fillcolor="#e78945"] ;
105 -> 113 ;
114 [label="gini = 0.0\nsamples = 13\nvalue = [14.578, 0.0]\nclass = Not Engaged", fillcolor="#e58139"] ;
113 -> 114 ;
115 [label="gini = -0.0\nsamples = 1\nvalue = [0.0, 0.902]\nclass = Engaged", fillcolor="#399de5"] ;
113 -> 115 ;
116 [label="gini = 0.0\nsamples = 8\nvalue = [8.971, 0.0]\nclass = Not Engaged", fillcolor="#e58139"] ;
90 -> 116 ;
117 [label=" p_12 <= 1.576\ngini = 0.218\nsamples = 40\nvalue = [38.126, 5.414]\nclass = Not Engaged", fillcolor="#e99355"] ;
89 -> 117 ;
118 [label=" p_23 <= 1.433\ngini = 0.158\nsamples = 38\nvalue = [38.126, 3.609]\nclass = Not Engaged", fillcolor="#e78d4c"] ;
117 -> 118 ;
119 [label=" p_19 <= -2.035\ngini = 0.089\nsamples = 35\nvalue = [37.005, 1.805]\nclass = Not Engaged", fillcolor="#e68743"] ;
118 -> 119 ;
120 [label="gini = 0.0\nsamples = 1\nvalue = [0.0, 0.902]\nclass = Engaged", fillcolor="#399de5"] ;
119 -> 120 ;
121 [label=" p_26 <= 0.872\ngini = 0.046\nsamples = 34\nvalue = [37.005, 0.902]\nclass = Not Engaged", fillcolor="#e6843e"] ;
119 -> 121 ;
122 [label="gini = -0.0\nsamples = 31\nvalue = [34.762, 0.0]\nclass = Not Engaged", fillcolor="#e58139"] ;
121 -> 122 ;
123 [label=" p_2 <= 0.162\ngini = 0.409\nsamples = 3\nvalue = [2.243, 0.902]\nclass = Not Engaged", fillcolor="#efb489"] ;
121 -> 123 ;
124 [label=" p_7 <= -0.341\ngini = 0.0\nsamples = 2\nvalue = [2.243, 0.0]\nclass = Not Engaged", fillcolor="#e58139"] ;
123 -> 124 ;
125 [label="gini = 0.0\nsamples = 1\nvalue = [1.121, 0.0]\nclass = Not Engaged", fillcolor="#e58139"] ;
124 -> 125 ;
126 [label="gini = 0.0\nsamples = 1\nvalue = [1.121, 0.0]\nclass = Not Engaged", fillcolor="#e58139"] ;
124 -> 126 ;
127 [label="gini = -0.0\nsamples = 1\nvalue = [0.0, 0.902]\nclass = Engaged", fillcolor="#399de5"] ;
123 -> 127 ;
128 [label=" p_15 <= -0.265\ngini = 0.473\nsamples = 3\nvalue = [1.121, 1.805]\nclass = Engaged", fillcolor="#b4daf5"] ;
118 -> 128 ;
129 [label="gini = -0.0\nsamples = 2\nvalue = [0.0, 1.805]\nclass = Engaged", fillcolor="#399de5"] ;
128 -> 129 ;
130 [label="gini = 0.0\nsamples = 1\nvalue = [1.121, 0.0]\nclass = Not Engaged", fillcolor="#e58139"] ;
128 -> 130 ;
131 [label=" p_10 <= -0.361\ngini = 0.0\nsamples = 2\nvalue = [0.0, 1.805]\nclass = Engaged", fillcolor="#399de5"] ;
117 -> 131 ;
132 [label="gini = 0.0\nsamples = 1\nvalue = [0.0, 0.902]\nclass = Engaged", fillcolor="#399de5"] ;
131 -> 132 ;
133 [label="gini = 0.0\nsamples = 1\nvalue = [0.0, 0.902]\nclass = Engaged", fillcolor="#399de5"] ;
131 -> 133 ;
134 [label=" p_20 <= -0.604\ngini = 0.5\nsamples = 105\nvalue = [53.826, 51.433]\nclass = Not Engaged", fillcolor="#fef9f6"] ;
88 -> 134 ;
135 [label=" p_11 <= -0.176\ngini = 0.421\nsamples = 35\nvalue = [10.092, 23.461]\nclass = Engaged", fillcolor="#8ec7f0"] ;
134 -> 135 ;
136 [label="gini = 0.0\nsamples = 3\nvalue = [3.364, 0.0]\nclass = Not Engaged", fillcolor="#e58139"] ;
135 -> 136 ;
137 [label=" p_24 <= -0.686\ngini = 0.346\nsamples = 32\nvalue = [6.728, 23.461]\nclass = Engaged", fillcolor="#72b9ec"] ;
135 -> 137 ;
138 [label=" p_15 <= -0.485\ngini = 0.494\nsamples = 10\nvalue = [5.607, 4.512]\nclass = Not Engaged", fillcolor="#fae6d8"] ;
137 -> 138 ;
139 [label="gini = 0.0\nsamples = 5\nvalue = [0.0, 4.512]\nclass = Engaged", fillcolor="#399de5"] ;
138 -> 139 ;
140 [label="gini = 0.0\nsamples = 5\nvalue = [5.607, 0.0]\nclass = Not Engaged", fillcolor="#e58139"] ;
138 -> 140 ;
141 [label=" gaze_1_z <= 0.242\ngini = 0.105\nsamples = 22\nvalue = [1.121, 18.949]\nclass = Engaged", fillcolor="#45a3e7"] ;
137 -> 141 ;
142 [label="gini = 0.0\nsamples = 21\nvalue = [0.0, 18.949]\nclass = Engaged", fillcolor="#399de5"] ;
141 -> 142 ;
143 [label="gini = 0.0\nsamples = 1\nvalue = [1.121, 0.0]\nclass = Not Engaged", fillcolor="#e58139"] ;
141 -> 143 ;
144 [label=" p_21 <= 0.541\ngini = 0.476\nsamples = 70\nvalue = [43.733, 27.973]\nclass = Not Engaged", fillcolor="#f6d2b8"] ;
134 -> 144 ;
145 [label=" p_5 <= 0.042\ngini = 0.5\nsamples = 48\nvalue = [23.549, 24.363]\nclass = Engaged", fillcolor="#f8fcfe"] ;
144 -> 145 ;
146 [label=" p_23 <= -0.165\ngini = 0.414\nsamples = 28\nvalue = [7.85, 18.949]\nclass = Engaged", fillcolor="#8bc6f0"] ;
145 -> 146 ;
147 [label="gini = 0.0\nsamples = 14\nvalue = [0.0, 12.633]\nclass = Engaged", fillcolor="#399de5"] ;
146 -> 147 ;
148 [label=" p_8 <= -0.792\ngini = 0.494\nsamples = 14\nvalue = [7.85, 6.316]\nclass = Not Engaged", fillcolor="#fae6d8"] ;
146 -> 148 ;
149 [label="gini = 0.0\nsamples = 5\nvalue = [0.0, 4.512]\nclass = Engaged", fillcolor="#399de5"] ;
148 -> 149 ;
150 [label=" AU25_r <= -0.733\ngini = 0.304\nsamples = 9\nvalue = [7.85, 1.805]\nclass = Not Engaged", fillcolor="#eb9e67"] ;
148 -> 150 ;
151 [label=" p_15 <= -0.626\ngini = 0.0\nsamples = 7\nvalue = [7.85, 0.0]\nclass = Not Engaged", fillcolor="#e58139"] ;
150 -> 151 ;
152 [label="gini = 0.0\nsamples = 1\nvalue = [1.121, 0.0]\nclass = Not Engaged", fillcolor="#e58139"] ;
151 -> 152 ;
153 [label="gini = 0.0\nsamples = 6\nvalue = [6.728, 0.0]\nclass = Not Engaged", fillcolor="#e58139"] ;
151 -> 153 ;
154 [label="gini = -0.0\nsamples = 2\nvalue = [0.0, 1.805]\nclass = Engaged", fillcolor="#399de5"] ;
150 -> 154 ;
155 [label=" p_19 <= -0.687\ngini = 0.381\nsamples = 20\nvalue = [15.699, 5.414]\nclass = Not Engaged", fillcolor="#eeac7d"] ;
145 -> 155 ;
156 [label="gini = 0.0\nsamples = 3\nvalue = [0.0, 2.707]\nclass = Engaged", fillcolor="#399de5"] ;
155 -> 156 ;
157 [label=" p_16 <= -0.443\ngini = 0.251\nsamples = 17\nvalue = [15.699, 2.707]\nclass = Not Engaged", fillcolor="#e9975b"] ;
155 -> 157 ;
158 [label=" p_0 <= -0.086\ngini = 0.496\nsamples = 5\nvalue = [2.243, 2.707]\nclass = Engaged", fillcolor="#ddeefb"] ;
157 -> 158 ;
159 [label="gini = 0.0\nsamples = 2\nvalue = [2.243, 0.0]\nclass = Not Engaged", fillcolor="#e58139"] ;
158 -> 159 ;
160 [label="gini = -0.0\nsamples = 3\nvalue = [0.0, 2.707]\nclass = Engaged", fillcolor="#399de5"] ;
158 -> 160 ;
161 [label=" p_9 <= -0.492\ngini = 0.0\nsamples = 12\nvalue = [13.456, 0.0]\nclass = Not Engaged", fillcolor="#e58139"] ;
157 -> 161 ;
162 [label="gini = 0.0\nsamples = 1\nvalue = [1.121, 0.0]\nclass = Not Engaged", fillcolor="#e58139"] ;
161 -> 162 ;
163 [label="gini = 0.0\nsamples = 11\nvalue = [12.335, 0.0]\nclass = Not Engaged", fillcolor="#e58139"] ;
161 -> 163 ;
164 [label=" gaze_1_z <= 0.23\ngini = 0.257\nsamples = 22\nvalue = [20.185, 3.609]\nclass = Not Engaged", fillcolor="#ea985c"] ;
144 -> 164 ;
165 [label=" AU23_r <= -0.545\ngini = 0.151\nsamples = 20\nvalue = [20.185, 1.805]\nclass = Not Engaged", fillcolor="#e78c4b"] ;
164 -> 165 ;
166 [label=" p_27 <= -0.509\ngini = 0.082\nsamples = 19\nvalue = [20.185, 0.902]\nclass = Not Engaged", fillcolor="#e68742"] ;
165 -> 166 ;
167 [label=" p_18 <= 0.873\ngini = 0.494\nsamples = 2\nvalue = [1.121, 0.902]\nclass = Not Engaged", fillcolor="#fae6d8"] ;
166 -> 167 ;
168 [label="gini = 0.0\nsamples = 1\nvalue = [1.121, 0.0]\nclass = Not Engaged", fillcolor="#e58139"] ;
167 -> 168 ;
169 [label="gini = 0.0\nsamples = 1\nvalue = [0.0, 0.902]\nclass = Engaged", fillcolor="#399de5"] ;
167 -> 169 ;
170 [label=" gaze_1_z <= -0.884\ngini = 0.0\nsamples = 17\nvalue = [19.063, 0.0]\nclass = Not Engaged", fillcolor="#e58139"] ;
166 -> 170 ;
171 [label="gini = 0.0\nsamples = 1\nvalue = [1.121, 0.0]\nclass = Not Engaged", fillcolor="#e58139"] ;
170 -> 171 ;
172 [label="gini = 0.0\nsamples = 16\nvalue = [17.942, 0.0]\nclass = Not Engaged", fillcolor="#e58139"] ;
170 -> 172 ;
173 [label="gini = -0.0\nsamples = 1\nvalue = [0.0, 0.902]\nclass = Engaged", fillcolor="#399de5"] ;
165 -> 173 ;
174 [label="gini = -0.0\nsamples = 2\nvalue = [0.0, 1.805]\nclass = Engaged", fillcolor="#399de5"] ;
164 -> 174 ;
175 [label=" AU23_r <= -0.034\ngini = 0.382\nsamples = 23\nvalue = [5.607, 16.242]\nclass = Engaged", fillcolor="#7dbfee"] ;
87 -> 175 ;
176 [label=" p_13 <= -0.584\ngini = 0.223\nsamples = 19\nvalue = [2.243, 15.34]\nclass = Engaged", fillcolor="#56abe9"] ;
175 -> 176 ;
177 [label=" p_13 <= -1.102\ngini = 0.494\nsamples = 4\nvalue = [2.243, 1.805]\nclass = Not Engaged", fillcolor="#fae6d8"] ;
176 -> 177 ;
178 [label="gini = 0.0\nsamples = 2\nvalue = [0.0, 1.805]\nclass = Engaged", fillcolor="#399de5"] ;
177 -> 178 ;
179 [label="gini = 0.0\nsamples = 2\nvalue = [2.243, 0.0]\nclass = Not Engaged", fillcolor="#e58139"] ;
177 -> 179 ;
180 [label="gini = -0.0\nsamples = 15\nvalue = [0.0, 13.535]\nclass = Engaged", fillcolor="#399de5"] ;
176 -> 180 ;
181 [label=" AU12_r <= -0.219\ngini = 0.334\nsamples = 4\nvalue = [3.364, 0.902]\nclass = Not Engaged", fillcolor="#eca36e"] ;
175 -> 181 ;
182 [label=" AU14_r <= -0.862\ngini = 0.0\nsamples = 3\nvalue = [3.364, 0.0]\nclass = Not Engaged", fillcolor="#e58139"] ;
181 -> 182 ;
183 [label="gini = 0.0\nsamples = 2\nvalue = [2.243, 0.0]\nclass = Not Engaged", fillcolor="#e58139"] ;
182 -> 183 ;
184 [label="gini = 0.0\nsamples = 1\nvalue = [1.121, 0.0]\nclass = Not Engaged", fillcolor="#e58139"] ;
182 -> 184 ;
185 [label="gini = -0.0\nsamples = 1\nvalue = [0.0, 0.902]\nclass = Engaged", fillcolor="#399de5"] ;
181 -> 185 ;
186 [label=" p_31 <= -0.39\ngini = 0.339\nsamples = 22\nvalue = [4.485, 16.242]\nclass = Engaged", fillcolor="#70b8ec"] ;
86 -> 186 ;
187 [label="gini = 0.0\nsamples = 2\nvalue = [2.243, 0.0]\nclass = Not Engaged", fillcolor="#e58139"] ;
186 -> 187 ;
188 [label=" AU02_r <= -0.425\ngini = 0.213\nsamples = 20\nvalue = [2.243, 16.242]\nclass = Engaged", fillcolor="#54abe9"] ;
186 -> 188 ;
189 [label="gini = 0.0\nsamples = 16\nvalue = [0.0, 14.437]\nclass = Engaged", fillcolor="#399de5"] ;
188 -> 189 ;
190 [label=" p_2 <= -0.891\ngini = 0.494\nsamples = 4\nvalue = [2.243, 1.805]\nclass = Not Engaged", fillcolor="#fae6d8"] ;
188 -> 190 ;
191 [label="gini = 0.0\nsamples = 2\nvalue = [0.0, 1.805]\nclass = Engaged", fillcolor="#399de5"] ;
190 -> 191 ;
192 [label="gini = 0.0\nsamples = 2\nvalue = [2.243, 0.0]\nclass = Not Engaged", fillcolor="#e58139"] ;
190 -> 192 ;
193 [label=" p_7 <= -0.426\ngini = 0.433\nsamples = 202\nvalue = [61.675, 132.644]\nclass = Engaged", fillcolor="#95cbf1"] ;
11 -> 193 ;
194 [label=" p_19 <= 0.896\ngini = 0.499\nsamples = 60\nvalue = [31.398, 28.875]\nclass = Not Engaged", fillcolor="#fdf5ef"] ;
193 -> 194 ;
195 [label=" p_12 <= 0.247\ngini = 0.476\nsamples = 47\nvalue = [17.942, 27.973]\nclass = Engaged", fillcolor="#b8dcf6"] ;
194 -> 195 ;
196 [label=" p_12 <= 0.071\ngini = 0.494\nsamples = 30\nvalue = [16.82, 13.535]\nclass = Not Engaged", fillcolor="#fae6d8"] ;
195 -> 196 ;
197 [label=" p_5 <= -0.274\ngini = 0.489\nsamples = 24\nvalue = [10.092, 13.535]\nclass = Engaged", fillcolor="#cde6f8"] ;
196 -> 197 ;
198 [label=" p_5 <= -1.26\ngini = 0.454\nsamples = 15\nvalue = [10.092, 5.414]\nclass = Not Engaged", fillcolor="#f3c5a3"] ;
197 -> 198 ;
199 [label="gini = 0.0\nsamples = 4\nvalue = [0.0, 3.609]\nclass = Engaged", fillcolor="#399de5"] ;
198 -> 199 ;
200 [label=" p_18 <= -1.244\ngini = 0.257\nsamples = 11\nvalue = [10.092, 1.805]\nclass = Not Engaged", fillcolor="#ea985c"] ;
198 -> 200 ;
201 [label="gini = 0.0\nsamples = 2\nvalue = [0.0, 1.805]\nclass = Engaged", fillcolor="#399de5"] ;
200 -> 201 ;
202 [label="gini = 0.0\nsamples = 9\nvalue = [10.092, 0.0]\nclass = Not Engaged", fillcolor="#e58139"] ;
200 -> 202 ;
203 [label="gini = 0.0\nsamples = 9\nvalue = [0.0, 8.121]\nclass = Engaged", fillcolor="#399de5"] ;
197 -> 203 ;
204 [label="gini = 0.0\nsamples = 6\nvalue = [6.728, 0.0]\nclass = Not Engaged", fillcolor="#e58139"] ;
196 -> 204 ;
205 [label=" p_11 <= -1.966\ngini = 0.134\nsamples = 17\nvalue = [1.121, 14.437]\nclass = Engaged", fillcolor="#48a5e7"] ;
195 -> 205 ;
206 [label="gini = 0.0\nsamples = 1\nvalue = [1.121, 0.0]\nclass = Not Engaged", fillcolor="#e58139"] ;
205 -> 206 ;
207 [label="gini = 0.0\nsamples = 16\nvalue = [0.0, 14.437]\nclass = Engaged", fillcolor="#399de5"] ;
205 -> 207 ;
208 [label=" p_12 <= 1.608\ngini = 0.118\nsamples = 13\nvalue = [13.456, 0.902]\nclass = Not Engaged", fillcolor="#e78946"] ;
194 -> 208 ;
209 [label="gini = 0.0\nsamples = 12\nvalue = [13.456, 0.0]\nclass = Not Engaged", fillcolor="#e58139"] ;
208 -> 209 ;
210 [label="gini = -0.0\nsamples = 1\nvalue = [0.0, 0.902]\nclass = Engaged", fillcolor="#399de5"] ;
208 -> 210 ;
211 [label=" p_0 <= 0.69\ngini = 0.35\nsamples = 142\nvalue = [30.277, 103.769]\nclass = Engaged", fillcolor="#73baed"] ;
193 -> 211 ;
212 [label=" p_8 <= -1.529\ngini = 0.248\nsamples = 108\nvalue = [14.578, 85.722]\nclass = Engaged", fillcolor="#5baee9"] ;
211 -> 212 ;
213 [label=" p_11 <= -0.332\ngini = 0.489\nsamples = 16\nvalue = [6.728, 9.023]\nclass = Engaged", fillcolor="#cde6f8"] ;
212 -> 213 ;
214 [label=" p_8 <= -2.328\ngini = 0.213\nsamples = 10\nvalue = [1.121, 8.121]\nclass = Engaged", fillcolor="#54abe9"] ;
213 -> 214 ;
215 [label="gini = 0.0\nsamples = 1\nvalue = [1.121, 0.0]\nclass = Not Engaged", fillcolor="#e58139"] ;
214 -> 215 ;
216 [label="gini = -0.0\nsamples = 9\nvalue = [0.0, 8.121]\nclass = Engaged", fillcolor="#399de5"] ;
214 -> 216 ;
217 [label=" p_13 <= 1.337\ngini = 0.239\nsamples = 6\nvalue = [5.607, 0.902]\nclass = Not Engaged", fillcolor="#e99559"] ;
213 -> 217 ;
218 [label="gini = 0.0\nsamples = 5\nvalue = [5.607, 0.0]\nclass = Not Engaged", fillcolor="#e58139"] ;
217 -> 218 ;
219 [label="gini = -0.0\nsamples = 1\nvalue = [0.0, 0.902]\nclass = Engaged", fillcolor="#399de5"] ;
217 -> 219 ;
220 [label=" p_23 <= -0.486\ngini = 0.168\nsamples = 92\nvalue = [7.85, 76.699]\nclass = Engaged", fillcolor="#4da7e8"] ;
212 -> 220 ;
221 [label=" AU17_r <= -0.611\ngini = 0.438\nsamples = 18\nvalue = [5.607, 11.73]\nclass = Engaged", fillcolor="#98ccf1"] ;
220 -> 221 ;
222 [label=" AU25_r <= 0.496\ngini = 0.239\nsamples = 6\nvalue = [5.607, 0.902]\nclass = Not Engaged", fillcolor="#e99559"] ;
221 -> 222 ;
223 [label=" p_2 <= -1.359\ngini = 0.0\nsamples = 5\nvalue = [5.607, 0.0]\nclass = Not Engaged", fillcolor="#e58139"] ;
222 -> 223 ;
224 [label="gini = 0.0\nsamples = 1\nvalue = [1.121, 0.0]\nclass = Not Engaged", fillcolor="#e58139"] ;
223 -> 224 ;
225 [label="gini = 0.0\nsamples = 4\nvalue = [4.485, 0.0]\nclass = Not Engaged", fillcolor="#e58139"] ;
223 -> 225 ;
226 [label="gini = -0.0\nsamples = 1\nvalue = [0.0, 0.902]\nclass = Engaged", fillcolor="#399de5"] ;
222 -> 226 ;
227 [label="gini = -0.0\nsamples = 12\nvalue = [0.0, 10.828]\nclass = Engaged", fillcolor="#399de5"] ;
221 -> 227 ;
228 [label=" p_18 <= 1.636\ngini = 0.065\nsamples = 74\nvalue = [2.243, 64.968]\nclass = Engaged", fillcolor="#40a0e6"] ;
220 -> 228 ;
229 [label=" p_0 <= -1.629\ngini = 0.034\nsamples = 72\nvalue = [1.121, 64.066]\nclass = Engaged", fillcolor="#3c9fe5"] ;
228 -> 229 ;
230 [label=" p_23 <= 0.851\ngini = 0.494\nsamples = 2\nvalue = [1.121, 0.902]\nclass = Not Engaged", fillcolor="#fae6d8"] ;
229 -> 230 ;
231 [label="gini = 0.0\nsamples = 1\nvalue = [0.0, 0.902]\nclass = Engaged", fillcolor="#399de5"] ;
230 -> 231 ;
232 [label="gini = 0.0\nsamples = 1\nvalue = [1.121, 0.0]\nclass = Not Engaged", fillcolor="#e58139"] ;
230 -> 232 ;
233 [label="gini = -0.0\nsamples = 70\nvalue = [0.0, 63.164]\nclass = Engaged", fillcolor="#399de5"] ;
229 -> 233 ;
234 [label=" p_1 <= 0.105\ngini = 0.494\nsamples = 2\nvalue = [1.121, 0.902]\nclass = Not Engaged", fillcolor="#fae6d8"] ;
228 -> 234 ;
235 [label="gini = 0.0\nsamples = 1\nvalue = [1.121, 0.0]\nclass = Not Engaged", fillcolor="#e58139"] ;
234 -> 235 ;
236 [label="gini = 0.0\nsamples = 1\nvalue = [0.0, 0.902]\nclass = Engaged", fillcolor="#399de5"] ;
234 -> 236 ;
237 [label=" p_12 <= -0.052\ngini = 0.498\nsamples = 34\nvalue = [15.699, 18.047]\nclass = Engaged", fillcolor="#e5f2fc"] ;
211 -> 237 ;
238 [label=" p_19 <= 0.399\ngini = 0.424\nsamples = 17\nvalue = [12.335, 5.414]\nclass = Not Engaged", fillcolor="#f0b890"] ;
237 -> 238 ;
239 [label=" p_27 <= 0.236\ngini = 0.151\nsamples = 10\nvalue = [10.092, 0.902]\nclass = Not Engaged", fillcolor="#e78c4b"] ;
238 -> 239 ;
240 [label="gini = 0.0\nsamples = 9\nvalue = [10.092, 0.0]\nclass = Not Engaged", fillcolor="#e58139"] ;
239 -> 240 ;
241 [label="gini = -0.0\nsamples = 1\nvalue = [0.0, 0.902]\nclass = Engaged", fillcolor="#399de5"] ;
239 -> 241 ;
242 [label=" p_2 <= 0.884\ngini = 0.444\nsamples = 7\nvalue = [2.243, 4.512]\nclass = Engaged", fillcolor="#9bcef2"] ;
238 -> 242 ;
243 [label="gini = 0.0\nsamples = 5\nvalue = [0.0, 4.512]\nclass = Engaged", fillcolor="#399de5"] ;
242 -> 243 ;
244 [label=" p_5 <= -0.497\ngini = 0.0\nsamples = 2\nvalue = [2.243, 0.0]\nclass = Not Engaged", fillcolor="#e58139"] ;
242 -> 244 ;
245 [label="gini = 0.0\nsamples = 1\nvalue = [1.121, 0.0]\nclass = Not Engaged", fillcolor="#e58139"] ;
244 -> 245 ;
246 [label="gini = 0.0\nsamples = 1\nvalue = [1.121, 0.0]\nclass = Not Engaged", fillcolor="#e58139"] ;
244 -> 246 ;
247 [label=" p_10 <= 0.826\ngini = 0.332\nsamples = 17\nvalue = [3.364, 12.633]\nclass = Engaged", fillcolor="#6eb7ec"] ;
237 -> 247 ;
248 [label=" p_0 <= 0.72\ngini = 0.15\nsamples = 15\nvalue = [1.121, 12.633]\nclass = Engaged", fillcolor="#4ba6e7"] ;
247 -> 248 ;
249 [label="gini = 0.0\nsamples = 1\nvalue = [1.121, 0.0]\nclass = Not Engaged", fillcolor="#e58139"] ;
248 -> 249 ;
250 [label="gini = -0.0\nsamples = 14\nvalue = [0.0, 12.633]\nclass = Engaged", fillcolor="#399de5"] ;
248 -> 250 ;
251 [label="gini = 0.0\nsamples = 2\nvalue = [2.243, 0.0]\nclass = Not Engaged", fillcolor="#e58139"] ;
247 -> 251 ;
252 [label=" AU10_r <= -0.852\ngini = 0.419\nsamples = 286\nvalue = [81.86, 192.198]\nclass = Engaged", fillcolor="#8dc7f0"] ;
10 -> 252 ;
253 [label=" p_13 <= -0.954\ngini = 0.341\nsamples = 169\nvalue = [34.762, 124.523]\nclass = Engaged", fillcolor="#70b8ec"] ;
252 -> 253 ;
254 [label=" AU26_r <= 0.088\ngini = 0.494\nsamples = 22\nvalue = [12.335, 9.926]\nclass = Not Engaged", fillcolor="#fae6d8"] ;
253 -> 254 ;
255 [label=" p_24 <= -0.743\ngini = 0.392\nsamples = 16\nvalue = [12.335, 4.512]\nclass = Not Engaged", fillcolor="#efaf81"] ;
254 -> 255 ;
256 [label="gini = 0.0\nsamples = 4\nvalue = [0.0, 3.609]\nclass = Engaged", fillcolor="#399de5"] ;
255 -> 256 ;
257 [label=" AU09_r <= 2.275\ngini = 0.127\nsamples = 12\nvalue = [12.335, 0.902]\nclass = Not Engaged", fillcolor="#e78a47"] ;
255 -> 257 ;
258 [label="gini = 0.0\nsamples = 11\nvalue = [12.335, 0.0]\nclass = Not Engaged", fillcolor="#e58139"] ;
257 -> 258 ;
259 [label="gini = -0.0\nsamples = 1\nvalue = [0.0, 0.902]\nclass = Engaged", fillcolor="#399de5"] ;
257 -> 259 ;
260 [label="gini = 0.0\nsamples = 6\nvalue = [0.0, 5.414]\nclass = Engaged", fillcolor="#399de5"] ;
254 -> 260 ;
261 [label=" AU06_r <= -0.277\ngini = 0.274\nsamples = 147\nvalue = [22.427, 114.597]\nclass = Engaged", fillcolor="#60b0ea"] ;
253 -> 261 ;
262 [label=" p_3 <= -2.136\ngini = 0.171\nsamples = 116\nvalue = [10.092, 96.55]\nclass = Engaged", fillcolor="#4ea7e8"] ;
261 -> 262 ;
263 [label=" AU23_r <= -0.545\ngini = 0.409\nsamples = 3\nvalue = [2.243, 0.902]\nclass = Not Engaged", fillcolor="#efb489"] ;
262 -> 263 ;
264 [label=" p_12 <= -0.571\ngini = 0.0\nsamples = 2\nvalue = [2.243, 0.0]\nclass = Not Engaged", fillcolor="#e58139"] ;
263 -> 264 ;
265 [label="gini = 0.0\nsamples = 1\nvalue = [1.121, 0.0]\nclass = Not Engaged", fillcolor="#e58139"] ;
264 -> 265 ;
266 [label="gini = 0.0\nsamples = 1\nvalue = [1.121, 0.0]\nclass = Not Engaged", fillcolor="#e58139"] ;
264 -> 266 ;
267 [label="gini = -0.0\nsamples = 1\nvalue = [0.0, 0.902]\nclass = Engaged", fillcolor="#399de5"] ;
263 -> 267 ;
268 [label=" p_23 <= 1.163\ngini = 0.14\nsamples = 113\nvalue = [7.85, 95.648]\nclass = Engaged", fillcolor="#49a5e7"] ;
262 -> 268 ;
269 [label=" p_12 <= 2.152\ngini = 0.089\nsamples = 106\nvalue = [4.485, 92.039]\nclass = Engaged", fillcolor="#43a2e6"] ;
268 -> 269 ;
270 [label=" p_0 <= 2.35\ngini = 0.069\nsamples = 104\nvalue = [3.364, 91.136]\nclass = Engaged", fillcolor="#40a1e6"] ;
269 -> 270 ;
271 [label=" AU25_r <= 1.111\ngini = 0.047\nsamples = 102\nvalue = [2.243, 90.234]\nclass = Engaged", fillcolor="#3e9fe6"] ;
270 -> 271 ;
272 [label=" p_26 <= -1.353\ngini = 0.025\nsamples = 99\nvalue = [1.121, 88.429]\nclass = Engaged", fillcolor="#3c9ee5"] ;
271 -> 272 ;
273 [label=" p_6 <= -0.229\ngini = 0.414\nsamples = 4\nvalue = [1.121, 2.707]\nclass = Engaged", fillcolor="#8bc6f0"] ;
272 -> 273 ;
274 [label="gini = 0.0\nsamples = 1\nvalue = [1.121, 0.0]\nclass = Not Engaged", fillcolor="#e58139"] ;
273 -> 274 ;
275 [label="gini = -0.0\nsamples = 3\nvalue = [0.0, 2.707]\nclass = Engaged", fillcolor="#399de5"] ;
273 -> 275 ;
276 [label="gini = -0.0\nsamples = 95\nvalue = [0.0, 85.722]\nclass = Engaged", fillcolor="#399de5"] ;
272 -> 276 ;
277 [label=" p_16 <= 0.399\ngini = 0.473\nsamples = 3\nvalue = [1.121, 1.805]\nclass = Engaged", fillcolor="#b4daf5"] ;
271 -> 277 ;
278 [label="gini = -0.0\nsamples = 2\nvalue = [0.0, 1.805]\nclass = Engaged", fillcolor="#399de5"] ;
277 -> 278 ;
279 [label="gini = 0.0\nsamples = 1\nvalue = [1.121, 0.0]\nclass = Not Engaged", fillcolor="#e58139"] ;
277 -> 279 ;
280 [label=" p_2 <= 0.042\ngini = 0.494\nsamples = 2\nvalue = [1.121, 0.902]\nclass = Not Engaged", fillcolor="#fae6d8"] ;
270 -> 280 ;
281 [label="gini = 0.0\nsamples = 1\nvalue = [0.0, 0.902]\nclass = Engaged", fillcolor="#399de5"] ;
280 -> 281 ;
282 [label="gini = 0.0\nsamples = 1\nvalue = [1.121, 0.0]\nclass = Not Engaged", fillcolor="#e58139"] ;
280 -> 282 ;
283 [label=" AU25_r <= -0.487\ngini = 0.494\nsamples = 2\nvalue = [1.121, 0.902]\nclass = Not Engaged", fillcolor="#fae6d8"] ;
269 -> 283 ;
284 [label="gini = 0.0\nsamples = 1\nvalue = [1.121, 0.0]\nclass = Not Engaged", fillcolor="#e58139"] ;
283 -> 284 ;
285 [label="gini = 0.0\nsamples = 1\nvalue = [0.0, 0.902]\nclass = Engaged", fillcolor="#399de5"] ;
283 -> 285 ;
286 [label=" AU02_r <= -0.491\ngini = 0.499\nsamples = 7\nvalue = [3.364, 3.609]\nclass = Engaged", fillcolor="#f2f8fd"] ;
268 -> 286 ;
287 [label="gini = -0.0\nsamples = 4\nvalue = [0.0, 3.609]\nclass = Engaged", fillcolor="#399de5"] ;
286 -> 287 ;
288 [label=" AU17_r <= -1.179\ngini = 0.0\nsamples = 3\nvalue = [3.364, 0.0]\nclass = Not Engaged", fillcolor="#e58139"] ;
286 -> 288 ;
289 [label="gini = 0.0\nsamples = 1\nvalue = [1.121, 0.0]\nclass = Not Engaged", fillcolor="#e58139"] ;
288 -> 289 ;
290 [label="gini = 0.0\nsamples = 2\nvalue = [2.243, 0.0]\nclass = Not Engaged", fillcolor="#e58139"] ;
288 -> 290 ;
291 [label=" p_8 <= -0.352\ngini = 0.482\nsamples = 31\nvalue = [12.335, 18.047]\nclass = Engaged", fillcolor="#c0e0f7"] ;
261 -> 291 ;
292 [label=" p_9 <= 1.086\ngini = 0.405\nsamples = 25\nvalue = [6.728, 17.144]\nclass = Engaged", fillcolor="#87c3ef"] ;
291 -> 292 ;
293 [label=" p_19 <= 2.022\ngini = 0.329\nsamples = 23\nvalue = [4.485, 17.144]\nclass = Engaged", fillcolor="#6db7ec"] ;
292 -> 293 ;
294 [label=" p_6 <= -1.476\ngini = 0.205\nsamples = 21\nvalue = [2.243, 17.144]\nclass = Engaged", fillcolor="#53aae8"] ;
293 -> 294 ;
295 [label=" p_27 <= -0.122\ngini = 0.409\nsamples = 3\nvalue = [2.243, 0.902]\nclass = Not Engaged", fillcolor="#efb489"] ;
294 -> 295 ;
296 [label=" p_27 <= -0.294\ngini = 0.0\nsamples = 2\nvalue = [2.243, 0.0]\nclass = Not Engaged", fillcolor="#e58139"] ;
295 -> 296 ;
297 [label="gini = 0.0\nsamples = 1\nvalue = [1.121, 0.0]\nclass = Not Engaged", fillcolor="#e58139"] ;
296 -> 297 ;
298 [label="gini = 0.0\nsamples = 1\nvalue = [1.121, 0.0]\nclass = Not Engaged", fillcolor="#e58139"] ;
296 -> 298 ;
299 [label="gini = -0.0\nsamples = 1\nvalue = [0.0, 0.902]\nclass = Engaged", fillcolor="#399de5"] ;
295 -> 299 ;
300 [label="gini = -0.0\nsamples = 18\nvalue = [0.0, 16.242]\nclass = Engaged", fillcolor="#399de5"] ;
294 -> 300 ;
301 [label="gini = 0.0\nsamples = 2\nvalue = [2.243, 0.0]\nclass = Not Engaged", fillcolor="#e58139"] ;
293 -> 301 ;
302 [label="gini = 0.0\nsamples = 2\nvalue = [2.243, 0.0]\nclass = Not Engaged", fillcolor="#e58139"] ;
292 -> 302 ;
303 [label=" AU26_r <= -0.435\ngini = 0.239\nsamples = 6\nvalue = [5.607, 0.902]\nclass = Not Engaged", fillcolor="#e99559"] ;
291 -> 303 ;
304 [label="gini = 0.0\nsamples = 5\nvalue = [5.607, 0.0]\nclass = Not Engaged", fillcolor="#e58139"] ;
303 -> 304 ;
305 [label="gini = -0.0\nsamples = 1\nvalue = [0.0, 0.902]\nclass = Engaged", fillcolor="#399de5"] ;
303 -> 305 ;
306 [label=" AU17_r <= -1.189\ngini = 0.484\nsamples = 117\nvalue = [47.097, 67.676]\nclass = Engaged", fillcolor="#c3e1f7"] ;
252 -> 306 ;
307 [label=" gaze_1_z <= -0.672\ngini = 0.239\nsamples = 12\nvalue = [11.214, 1.805]\nclass = Not Engaged", fillcolor="#e99559"] ;
306 -> 307 ;
308 [label="gini = 0.0\nsamples = 2\nvalue = [0.0, 1.805]\nclass = Engaged", fillcolor="#399de5"] ;
307 -> 308 ;
309 [label=" p_26 <= -0.74\ngini = 0.0\nsamples = 10\nvalue = [11.214, 0.0]\nclass = Not Engaged", fillcolor="#e58139"] ;
307 -> 309 ;
310 [label="gini = 0.0\nsamples = 1\nvalue = [1.121, 0.0]\nclass = Not Engaged", fillcolor="#e58139"] ;
309 -> 310 ;
311 [label="gini = 0.0\nsamples = 9\nvalue = [10.092, 0.0]\nclass = Not Engaged", fillcolor="#e58139"] ;
309 -> 311 ;
312 [label=" p_5 <= -1.93\ngini = 0.457\nsamples = 105\nvalue = [35.884, 65.871]\nclass = Engaged", fillcolor="#a5d2f3"] ;
306 -> 312 ;
313 [label="gini = 0.0\nsamples = 5\nvalue = [5.607, 0.0]\nclass = Not Engaged", fillcolor="#e58139"] ;
312 -> 313 ;
314 [label=" AU15_r <= 0.11\ngini = 0.431\nsamples = 100\nvalue = [30.277, 65.871]\nclass = Engaged", fillcolor="#94caf1"] ;
312 -> 314 ;
315 [label=" p_5 <= 1.007\ngini = 0.338\nsamples = 72\nvalue = [14.578, 53.238]\nclass = Engaged", fillcolor="#6fb8ec"] ;
314 -> 315 ;
316 [label=" AU45_r <= -0.492\ngini = 0.274\nsamples = 66\nvalue = [10.092, 51.433]\nclass = Engaged", fillcolor="#60b0ea"] ;
315 -> 316 ;
317 [label=" p_19 <= 0.462\ngini = 0.421\nsamples = 35\nvalue = [10.092, 23.461]\nclass = Engaged", fillcolor="#8ec7f0"] ;
316 -> 317 ;
318 [label=" AU45_r <= -0.644\ngini = 0.24\nsamples = 26\nvalue = [3.364, 20.754]\nclass = Engaged", fillcolor="#59ade9"] ;
317 -> 318 ;
319 [label=" p_0 <= -1.653\ngini = 0.097\nsamples = 24\nvalue = [1.121, 20.754]\nclass = Engaged", fillcolor="#44a2e6"] ;
318 -> 319 ;
320 [label="gini = 0.0\nsamples = 1\nvalue = [1.121, 0.0]\nclass = Not Engaged", fillcolor="#e58139"] ;
319 -> 320 ;
321 [label="gini = -0.0\nsamples = 23\nvalue = [0.0, 20.754]\nclass = Engaged", fillcolor="#399de5"] ;
319 -> 321 ;
322 [label="gini = 0.0\nsamples = 2\nvalue = [2.243, 0.0]\nclass = Not Engaged", fillcolor="#e58139"] ;
318 -> 322 ;
323 [label=" p_30 <= 0.082\ngini = 0.409\nsamples = 9\nvalue = [6.728, 2.707]\nclass = Not Engaged", fillcolor="#efb489"] ;
317 -> 323 ;
324 [label=" p_24 <= -0.626\ngini = 0.0\nsamples = 5\nvalue = [5.607, 0.0]\nclass = Not Engaged", fillcolor="#e58139"] ;
323 -> 324 ;
325 [label="gini = 0.0\nsamples = 1\nvalue = [1.121, 0.0]\nclass = Not Engaged", fillcolor="#e58139"] ;
324 -> 325 ;
326 [label="gini = 0.0\nsamples = 4\nvalue = [4.485, 0.0]\nclass = Not Engaged", fillcolor="#e58139"] ;
324 -> 326 ;
327 [label=" p_31 <= -0.224\ngini = 0.414\nsamples = 4\nvalue = [1.121, 2.707]\nclass = Engaged", fillcolor="#8bc6f0"] ;
323 -> 327 ;
328 [label="gini = 0.0\nsamples = 1\nvalue = [1.121, 0.0]\nclass = Not Engaged", fillcolor="#e58139"] ;
327 -> 328 ;
329 [label="gini = -0.0\nsamples = 3\nvalue = [0.0, 2.707]\nclass = Engaged", fillcolor="#399de5"] ;
327 -> 329 ;
330 [label=" AU09_r <= -0.495\ngini = 0.0\nsamples = 31\nvalue = [0.0, 27.973]\nclass = Engaged", fillcolor="#399de5"] ;
316 -> 330 ;
331 [label="gini = 0.0\nsamples = 1\nvalue = [0.0, 0.902]\nclass = Engaged", fillcolor="#399de5"] ;
330 -> 331 ;
332 [label="gini = 0.0\nsamples = 30\nvalue = [0.0, 27.07]\nclass = Engaged", fillcolor="#399de5"] ;
330 -> 332 ;
333 [label=" p_12 <= 0.806\ngini = 0.409\nsamples = 6\nvalue = [4.485, 1.805]\nclass = Not Engaged", fillcolor="#efb489"] ;
315 -> 333 ;
334 [label="gini = 0.0\nsamples = 4\nvalue = [4.485, 0.0]\nclass = Not Engaged", fillcolor="#e58139"] ;
333 -> 334 ;
335 [label="gini = -0.0\nsamples = 2\nvalue = [0.0, 1.805]\nclass = Engaged", fillcolor="#399de5"] ;
333 -> 335 ;
336 [label=" p_31 <= 0.126\ngini = 0.494\nsamples = 28\nvalue = [15.699, 12.633]\nclass = Not Engaged", fillcolor="#fae6d8"] ;
314 -> 336 ;
337 [label=" p_12 <= -0.737\ngini = 0.449\nsamples = 23\nvalue = [15.699, 8.121]\nclass = Not Engaged", fillcolor="#f2c29f"] ;
336 -> 337 ;
338 [label="gini = 0.0\nsamples = 8\nvalue = [8.971, 0.0]\nclass = Not Engaged", fillcolor="#e58139"] ;
337 -> 338 ;
339 [label=" p_16 <= -0.667\ngini = 0.496\nsamples = 15\nvalue = [6.728, 8.121]\nclass = Engaged", fillcolor="#ddeefb"] ;
337 -> 339 ;
340 [label="gini = 0.0\nsamples = 6\nvalue = [0.0, 5.414]\nclass = Engaged", fillcolor="#399de5"] ;
339 -> 340 ;
341 [label=" p_21 <= -0.149\ngini = 0.409\nsamples = 9\nvalue = [6.728, 2.707]\nclass = Not Engaged", fillcolor="#efb489"] ;
339 -> 341 ;
342 [label="gini = 0.0\nsamples = 3\nvalue = [0.0, 2.707]\nclass = Engaged", fillcolor="#399de5"] ;
341 -> 342 ;
343 [label="gini = 0.0\nsamples = 6\nvalue = [6.728, 0.0]\nclass = Not Engaged", fillcolor="#e58139"] ;
341 -> 343 ;
344 [label="gini = 0.0\nsamples = 5\nvalue = [0.0, 4.512]\nclass = Engaged", fillcolor="#399de5"] ;
336 -> 344 ;
345 [label=" p_6 <= 0.101\ngini = 0.438\nsamples = 75\nvalue = [52.704, 25.266]\nclass = Not Engaged", fillcolor="#f1bd98"] ;
9 -> 345 ;
346 [label=" gaze_1_z <= -0.52\ngini = 0.5\nsamples = 40\nvalue = [20.185, 19.851]\nclass = Not Engaged", fillcolor="#fffdfc"] ;
345 -> 346 ;
347 [label=" AU05_r <= -0.415\ngini = 0.403\nsamples = 21\nvalue = [5.607, 14.437]\nclass = Engaged", fillcolor="#86c3ef"] ;
346 -> 347 ;
348 [label=" p_11 <= -1.55\ngini = 0.141\nsamples = 16\nvalue = [1.121, 13.535]\nclass = Engaged", fillcolor="#49a5e7"] ;
347 -> 348 ;
349 [label="gini = 0.0\nsamples = 1\nvalue = [1.121, 0.0]\nclass = Not Engaged", fillcolor="#e58139"] ;
348 -> 349 ;
350 [label="gini = 0.0\nsamples = 15\nvalue = [0.0, 13.535]\nclass = Engaged", fillcolor="#399de5"] ;
348 -> 350 ;
351 [label=" AU10_c <= 1.392\ngini = 0.279\nsamples = 5\nvalue = [4.485, 0.902]\nclass = Not Engaged", fillcolor="#ea9a61"] ;
347 -> 351 ;
352 [label=" gaze_1_z <= -0.837\ngini = 0.0\nsamples = 4\nvalue = [4.485, 0.0]\nclass = Not Engaged", fillcolor="#e58139"] ;
351 -> 352 ;
353 [label="gini = 0.0\nsamples = 1\nvalue = [1.121, 0.0]\nclass = Not Engaged", fillcolor="#e58139"] ;
352 -> 353 ;
354 [label="gini = 0.0\nsamples = 3\nvalue = [3.364, 0.0]\nclass = Not Engaged", fillcolor="#e58139"] ;
352 -> 354 ;
355 [label="gini = -0.0\nsamples = 1\nvalue = [0.0, 0.902]\nclass = Engaged", fillcolor="#399de5"] ;
351 -> 355 ;
356 [label=" AU23_r <= -0.52\ngini = 0.395\nsamples = 19\nvalue = [14.578, 5.414]\nclass = Not Engaged", fillcolor="#efb083"] ;
346 -> 356 ;
357 [label=" AU25_r <= 0.141\ngini = 0.444\nsamples = 7\nvalue = [2.243, 4.512]\nclass = Engaged", fillcolor="#9bcef2"] ;
356 -> 357 ;
358 [label="gini = 0.0\nsamples = 5\nvalue = [0.0, 4.512]\nclass = Engaged", fillcolor="#399de5"] ;
357 -> 358 ;
359 [label=" AU02_r <= 0.053\ngini = 0.0\nsamples = 2\nvalue = [2.243, 0.0]\nclass = Not Engaged", fillcolor="#e58139"] ;
357 -> 359 ;
360 [label="gini = 0.0\nsamples = 1\nvalue = [1.121, 0.0]\nclass = Not Engaged", fillcolor="#e58139"] ;
359 -> 360 ;
361 [label="gini = 0.0\nsamples = 1\nvalue = [1.121, 0.0]\nclass = Not Engaged", fillcolor="#e58139"] ;
359 -> 361 ;
362 [label=" AU09_r <= 1.41\ngini = 0.127\nsamples = 12\nvalue = [12.335, 0.902]\nclass = Not Engaged", fillcolor="#e78a47"] ;
356 -> 362 ;
363 [label=" AU10_c <= 1.392\ngini = 0.0\nsamples = 11\nvalue = [12.335, 0.0]\nclass = Not Engaged", fillcolor="#e58139"] ;
362 -> 363 ;
364 [label="gini = 0.0\nsamples = 8\nvalue = [8.971, 0.0]\nclass = Not Engaged", fillcolor="#e58139"] ;
363 -> 364 ;
365 [label="gini = 0.0\nsamples = 3\nvalue = [3.364, 0.0]\nclass = Not Engaged", fillcolor="#e58139"] ;
363 -> 365 ;
366 [label="gini = -0.0\nsamples = 1\nvalue = [0.0, 0.902]\nclass = Engaged", fillcolor="#399de5"] ;
362 -> 366 ;
367 [label=" p_21 <= -1.143\ngini = 0.245\nsamples = 35\nvalue = [32.52, 5.414]\nclass = Not Engaged", fillcolor="#e9965a"] ;
345 -> 367 ;
368 [label="gini = 0.0\nsamples = 3\nvalue = [0.0, 2.707]\nclass = Engaged", fillcolor="#399de5"] ;
367 -> 368 ;
369 [label=" AU12_r <= -0.797\ngini = 0.142\nsamples = 32\nvalue = [32.52, 2.707]\nclass = Not Engaged", fillcolor="#e78b49"] ;
367 -> 369 ;
370 [label=" AU45_r <= -0.058\ngini = 0.469\nsamples = 7\nvalue = [4.485, 2.707]\nclass = Not Engaged", fillcolor="#f5cdb0"] ;
369 -> 370 ;
371 [label=" p_7 <= -1.043\ngini = 0.0\nsamples = 4\nvalue = [4.485, 0.0]\nclass = Not Engaged", fillcolor="#e58139"] ;
370 -> 371 ;
372 [label="gini = 0.0\nsamples = 1\nvalue = [1.121, 0.0]\nclass = Not Engaged", fillcolor="#e58139"] ;
371 -> 372 ;
373 [label="gini = 0.0\nsamples = 3\nvalue = [3.364, 0.0]\nclass = Not Engaged", fillcolor="#e58139"] ;
371 -> 373 ;
374 [label="gini = -0.0\nsamples = 3\nvalue = [0.0, 2.707]\nclass = Engaged", fillcolor="#399de5"] ;
370 -> 374 ;
375 [label="gini = -0.0\nsamples = 25\nvalue = [28.034, 0.0]\nclass = Not Engaged", fillcolor="#e58139"] ;
369 -> 375 ;
376 [label=" AU17_r <= 1.75\ngini = 0.498\nsamples = 1725\nvalue = [924.004, 813.009]\nclass = Not Engaged", fillcolor="#fcf0e7"] ;
8 -> 376 ;
377 [label=" AU04_c <= 1.381\ngini = 0.497\nsamples = 1686\nvalue = [919.519, 781.427]\nclass = Not Engaged", fillcolor="#fbece1"] ;
376 -> 377 ;
378 [label=" AU14_r <= 0.504\ngini = 0.498\nsamples = 1639\nvalue = [875.786, 774.208]\nclass = Not Engaged", fillcolor="#fcf0e8"] ;
377 -> 378 ;
379 [label=" AU10_r <= -0.68\ngini = 0.496\nsamples = 1555\nvalue = [853.359, 716.458]\nclass = Not Engaged", fillcolor="#fbebdf"] ;
378 -> 379 ;
380 [label=" AU17_r <= -1.17\ngini = 0.5\nsamples = 1103\nvalue = [558.44, 545.916]\nclass = Not Engaged", fillcolor="#fefcfb"] ;
379 -> 380 ;
381 [label=" p_1 <= 0.953\ngini = 0.482\nsamples = 420\nvalue = [254.55, 174.152]\nclass = Not Engaged", fillcolor="#f7d7c0"] ;
380 -> 381 ;
382 [label=" p_20 <= 1.457\ngini = 0.496\nsamples = 335\nvalue = [183.904, 154.3]\nclass = Not Engaged", fillcolor="#fbebdf"] ;
381 -> 382 ;
383 [label=" AU26_r <= -0.204\ngini = 0.5\nsamples = 312\nvalue = [160.355, 152.495]\nclass = Not Engaged", fillcolor="#fef9f5"] ;
382 -> 383 ;
384 [label=" p_5 <= 0.237\ngini = 0.496\nsamples = 278\nvalue = [152.506, 128.132]\nclass = Not Engaged", fillcolor="#fbebdf"] ;
383 -> 384 ;
385 [label=" p_8 <= 0.445\ngini = 0.466\nsamples = 145\nvalue = [94.195, 55.043]\nclass = Not Engaged", fillcolor="#f4cbad"] ;
384 -> 385 ;
386 [label=" p_1 <= -0.139\ngini = 0.5\nsamples = 74\nvalue = [37.005, 36.996]\nclass = Not Engaged", fillcolor="#ffffff"] ;
385 -> 386 ;
387 [label=" AU25_r <= -0.214\ngini = 0.391\nsamples = 31\nvalue = [7.85, 21.656]\nclass = Engaged", fillcolor="#81c1ee"] ;
386 -> 387 ;
388 [label=" p_31 <= -0.307\ngini = 0.24\nsamples = 26\nvalue = [3.364, 20.754]\nclass = Engaged", fillcolor="#59ade9"] ;
387 -> 388 ;
389 [label="gini = 0.0\nsamples = 2\nvalue = [2.243, 0.0]\nclass = Not Engaged", fillcolor="#e58139"] ;
388 -> 389 ;
390 [label=" p_10 <= -0.923\ngini = 0.097\nsamples = 24\nvalue = [1.121, 20.754]\nclass = Engaged", fillcolor="#44a2e6"] ;
388 -> 390 ;
391 [label="gini = 0.0\nsamples = 1\nvalue = [1.121, 0.0]\nclass = Not Engaged", fillcolor="#e58139"] ;
390 -> 391 ;
392 [label="gini = -0.0\nsamples = 23\nvalue = [0.0, 20.754]\nclass = Engaged", fillcolor="#399de5"] ;
390 -> 392 ;
393 [label=" AU15_r <= -0.464\ngini = 0.279\nsamples = 5\nvalue = [4.485, 0.902]\nclass = Not Engaged", fillcolor="#ea9a61"] ;
387 -> 393 ;
394 [label=" AU06_r <= -0.622\ngini = 0.0\nsamples = 4\nvalue = [4.485, 0.0]\nclass = Not Engaged", fillcolor="#e58139"] ;
393 -> 394 ;
395 [label="gini = 0.0\nsamples = 3\nvalue = [3.364, 0.0]\nclass = Not Engaged", fillcolor="#e58139"] ;
394 -> 395 ;
396 [label="gini = 0.0\nsamples = 1\nvalue = [1.121, 0.0]\nclass = Not Engaged", fillcolor="#e58139"] ;
394 -> 396 ;
397 [label="gini = -0.0\nsamples = 1\nvalue = [0.0, 0.902]\nclass = Engaged", fillcolor="#399de5"] ;
393 -> 397 ;
398 [label=" p_6 <= -0.823\ngini = 0.452\nsamples = 43\nvalue = [29.155, 15.34]\nclass = Not Engaged", fillcolor="#f3c3a1"] ;
386 -> 398 ;
399 [label=" p_5 <= -1.338\ngini = 0.256\nsamples = 8\nvalue = [1.121, 6.316]\nclass = Engaged", fillcolor="#5caeea"] ;
398 -> 399 ;
400 [label="gini = 0.0\nsamples = 1\nvalue = [1.121, 0.0]\nclass = Not Engaged", fillcolor="#e58139"] ;
399 -> 400 ;
401 [label="gini = -0.0\nsamples = 7\nvalue = [0.0, 6.316]\nclass = Engaged", fillcolor="#399de5"] ;
399 -> 401 ;
402 [label=" p_1 <= 0.201\ngini = 0.368\nsamples = 35\nvalue = [28.034, 9.023]\nclass = Not Engaged", fillcolor="#edaa79"] ;
398 -> 402 ;
403 [label="gini = 0.0\nsamples = 14\nvalue = [15.699, 0.0]\nclass = Not Engaged", fillcolor="#e58139"] ;
402 -> 403 ;
404 [label=" p_27 <= 0.093\ngini = 0.488\nsamples = 21\nvalue = [12.335, 9.023]\nclass = Not Engaged", fillcolor="#f8ddca"] ;
402 -> 404 ;
405 [label=" p_19 <= 0.705\ngini = 0.334\nsamples = 12\nvalue = [10.092, 2.707]\nclass = Not Engaged", fillcolor="#eca36e"] ;
404 -> 405 ;
406 [label=" p_1 <= 0.86\ngini = 0.151\nsamples = 10\nvalue = [10.092, 0.902]\nclass = Not Engaged", fillcolor="#e78c4b"] ;
405 -> 406 ;
407 [label="gini = 0.0\nsamples = 9\nvalue = [10.092, 0.0]\nclass = Not Engaged", fillcolor="#e58139"] ;
406 -> 407 ;
408 [label="gini = -0.0\nsamples = 1\nvalue = [0.0, 0.902]\nclass = Engaged", fillcolor="#399de5"] ;
406 -> 408 ;
409 [label="gini = -0.0\nsamples = 2\nvalue = [0.0, 1.805]\nclass = Engaged", fillcolor="#399de5"] ;
405 -> 409 ;
410 [label=" p_0 <= 0.613\ngini = 0.387\nsamples = 9\nvalue = [2.243, 6.316]\nclass = Engaged", fillcolor="#7fc0ee"] ;
404 -> 410 ;
411 [label="gini = -0.0\nsamples = 7\nvalue = [0.0, 6.316]\nclass = Engaged", fillcolor="#399de5"] ;
410 -> 411 ;
412 [label=" p_15 <= 0.141\ngini = 0.0\nsamples = 2\nvalue = [2.243, 0.0]\nclass = Not Engaged", fillcolor="#e58139"] ;
410 -> 412 ;
413 [label="gini = 0.0\nsamples = 1\nvalue = [1.121, 0.0]\nclass = Not Engaged", fillcolor="#e58139"] ;
412 -> 413 ;
414 [label="gini = 0.0\nsamples = 1\nvalue = [1.121, 0.0]\nclass = Not Engaged", fillcolor="#e58139"] ;
412 -> 414 ;
415 [label=" p_12 <= -1.618\ngini = 0.365\nsamples = 71\nvalue = [57.19, 18.047]\nclass = Not Engaged", fillcolor="#eda977"] ;
385 -> 415 ;
416 [label="gini = 0.0\nsamples = 3\nvalue = [0.0, 2.707]\nclass = Engaged", fillcolor="#399de5"] ;
415 -> 416 ;
417 [label=" p_5 <= -1.601\ngini = 0.334\nsamples = 68\nvalue = [57.19, 15.34]\nclass = Not Engaged", fillcolor="#eca36e"] ;
415 -> 417 ;
418 [label="gini = 0.0\nsamples = 2\nvalue = [0.0, 1.805]\nclass = Engaged", fillcolor="#399de5"] ;
417 -> 418 ;
419 [label=" AU01_r <= -0.09\ngini = 0.31\nsamples = 66\nvalue = [57.19, 13.535]\nclass = Not Engaged", fillcolor="#eb9f68"] ;
417 -> 419 ;
420 [label=" p_10 <= 0.333\ngini = 0.282\nsamples = 64\nvalue = [57.19, 11.73]\nclass = Not Engaged", fillcolor="#ea9b62"] ;
419 -> 420 ;
421 [label=" p_6 <= 0.419\ngini = 0.427\nsamples = 28\nvalue = [20.185, 9.023]\nclass = Not Engaged", fillcolor="#f1b992"] ;
420 -> 421 ;
422 [label=" p_3 <= 0.203\ngini = 0.496\nsamples = 15\nvalue = [6.728, 8.121]\nclass = Engaged", fillcolor="#ddeefb"] ;
421 -> 422 ;
423 [label="gini = 0.0\nsamples = 5\nvalue = [0.0, 4.512]\nclass = Engaged", fillcolor="#399de5"] ;
422 -> 423 ;
424 [label=" p_23 <= -0.044\ngini = 0.454\nsamples = 10\nvalue = [6.728, 3.609]\nclass = Not Engaged", fillcolor="#f3c5a3"] ;
422 -> 424 ;
425 [label="gini = 0.0\nsamples = 5\nvalue = [5.607, 0.0]\nclass = Not Engaged", fillcolor="#e58139"] ;
424 -> 425 ;
426 [label=" p_1 <= -1.91\ngini = 0.362\nsamples = 5\nvalue = [1.121, 3.609]\nclass = Engaged", fillcolor="#77bbed"] ;
424 -> 426 ;
427 [label="gini = 0.0\nsamples = 1\nvalue = [1.121, 0.0]\nclass = Not Engaged", fillcolor="#e58139"] ;
426 -> 427 ;
428 [label="gini = 0.0\nsamples = 4\nvalue = [0.0, 3.609]\nclass = Engaged", fillcolor="#399de5"] ;
426 -> 428 ;
429 [label=" p_30 <= 0.153\ngini = 0.118\nsamples = 13\nvalue = [13.456, 0.902]\nclass = Not Engaged", fillcolor="#e78946"] ;
421 -> 429 ;
430 [label="gini = 0.0\nsamples = 12\nvalue = [13.456, 0.0]\nclass = Not Engaged", fillcolor="#e58139"] ;
429 -> 430 ;
431 [label="gini = -0.0\nsamples = 1\nvalue = [0.0, 0.902]\nclass = Engaged", fillcolor="#399de5"] ;
429 -> 431 ;
432 [label=" p_24 <= -1.918\ngini = 0.127\nsamples = 36\nvalue = [37.005, 2.707]\nclass = Not Engaged", fillcolor="#e78a47"] ;
420 -> 432 ;
433 [label="gini = 0.0\nsamples = 1\nvalue = [0.0, 0.902]\nclass = Engaged", fillcolor="#399de5"] ;
432 -> 433 ;
434 [label=" AU09_r <= 1.583\ngini = 0.089\nsamples = 35\nvalue = [37.005, 1.805]\nclass = Not Engaged", fillcolor="#e68743"] ;
432 -> 434 ;
435 [label=" p_2 <= 0.496\ngini = 0.046\nsamples = 34\nvalue = [37.005, 0.902]\nclass = Not Engaged", fillcolor="#e6843e"] ;
434 -> 435 ;
436 [label="gini = -0.0\nsamples = 28\nvalue = [31.398, 0.0]\nclass = Not Engaged", fillcolor="#e58139"] ;
435 -> 436 ;
437 [label=" p_0 <= -0.03\ngini = 0.239\nsamples = 6\nvalue = [5.607, 0.902]\nclass = Not Engaged", fillcolor="#e99559"] ;
435 -> 437 ;
438 [label="gini = 0.0\nsamples = 5\nvalue = [5.607, 0.0]\nclass = Not Engaged", fillcolor="#e58139"] ;
437 -> 438 ;
439 [label="gini = -0.0\nsamples = 1\nvalue = [0.0, 0.902]\nclass = Engaged", fillcolor="#399de5"] ;
437 -> 439 ;
440 [label="gini = 0.0\nsamples = 1\nvalue = [0.0, 0.902]\nclass = Engaged", fillcolor="#399de5"] ;
434 -> 440 ;
441 [label="gini = -0.0\nsamples = 2\nvalue = [0.0, 1.805]\nclass = Engaged", fillcolor="#399de5"] ;
419 -> 441 ;
442 [label=" p_3 <= -0.252\ngini = 0.494\nsamples = 133\nvalue = [58.311, 73.09]\nclass = Engaged", fillcolor="#d7ebfa"] ;
384 -> 442 ;
443 [label=" p_23 <= -0.234\ngini = 0.39\nsamples = 29\nvalue = [22.427, 8.121]\nclass = Not Engaged", fillcolor="#eeaf81"] ;
442 -> 443 ;
444 [label="gini = 0.0\nsamples = 5\nvalue = [0.0, 4.512]\nclass = Engaged", fillcolor="#399de5"] ;
443 -> 444 ;
445 [label=" AU14_r <= -0.327\ngini = 0.239\nsamples = 24\nvalue = [22.427, 3.609]\nclass = Not Engaged", fillcolor="#e99559"] ;
443 -> 445 ;
446 [label=" p_13 <= -1.131\ngini = 0.074\nsamples = 21\nvalue = [22.427, 0.902]\nclass = Not Engaged", fillcolor="#e68641"] ;
445 -> 446 ;
447 [label="gini = 0.0\nsamples = 1\nvalue = [0.0, 0.902]\nclass = Engaged", fillcolor="#399de5"] ;
446 -> 447 ;
448 [label="gini = 0.0\nsamples = 20\nvalue = [22.427, 0.0]\nclass = Not Engaged", fillcolor="#e58139"] ;
446 -> 448 ;
449 [label="gini = -0.0\nsamples = 3\nvalue = [0.0, 2.707]\nclass = Engaged", fillcolor="#399de5"] ;
445 -> 449 ;
450 [label=" p_12 <= -0.236\ngini = 0.458\nsamples = 104\nvalue = [35.884, 64.968]\nclass = Engaged", fillcolor="#a6d3f3"] ;
442 -> 450 ;
451 [label=" p_11 <= -0.82\ngini = 0.308\nsamples = 44\nvalue = [7.85, 33.387]\nclass = Engaged", fillcolor="#68b4eb"] ;
450 -> 451 ;
452 [label="gini = 0.0\nsamples = 2\nvalue = [2.243, 0.0]\nclass = Not Engaged", fillcolor="#e58139"] ;
451 -> 452 ;
453 [label=" p_13 <= 1.07\ngini = 0.246\nsamples = 42\nvalue = [5.607, 33.387]\nclass = Engaged", fillcolor="#5aade9"] ;
451 -> 453 ;
454 [label=" p_8 <= -0.214\ngini = 0.17\nsamples = 39\nvalue = [3.364, 32.484]\nclass = Engaged", fillcolor="#4ea7e8"] ;
453 -> 454 ;
455 [label="gini = 0.0\nsamples = 1\nvalue = [1.121, 0.0]\nclass = Not Engaged", fillcolor="#e58139"] ;
454 -> 455 ;
456 [label=" p_15 <= 1.632\ngini = 0.121\nsamples = 38\nvalue = [2.243, 32.484]\nclass = Engaged", fillcolor="#47a4e7"] ;
454 -> 456 ;
457 [label=" p_18 <= 1.465\ngini = 0.066\nsamples = 36\nvalue = [1.121, 31.582]\nclass = Engaged", fillcolor="#40a0e6"] ;
456 -> 457 ;
458 [label=" p_5 <= 0.258\ngini = 0.0\nsamples = 32\nvalue = [0.0, 28.875]\nclass = Engaged", fillcolor="#399de5"] ;
457 -> 458 ;
459 [label="gini = 0.0\nsamples = 1\nvalue = [0.0, 0.902]\nclass = Engaged", fillcolor="#399de5"] ;
458 -> 459 ;
460 [label="gini = 0.0\nsamples = 31\nvalue = [0.0, 27.973]\nclass = Engaged", fillcolor="#399de5"] ;
458 -> 460 ;
461 [label=" p_6 <= -0.31\ngini = 0.414\nsamples = 4\nvalue = [1.121, 2.707]\nclass = Engaged", fillcolor="#8bc6f0"] ;
457 -> 461 ;
462 [label="gini = 0.0\nsamples = 1\nvalue = [1.121, 0.0]\nclass = Not Engaged", fillcolor="#e58139"] ;
461 -> 462 ;
463 [label="gini = -0.0\nsamples = 3\nvalue = [0.0, 2.707]\nclass = Engaged", fillcolor="#399de5"] ;
461 -> 463 ;
464 [label=" p_5 <= 1.398\ngini = 0.494\nsamples = 2\nvalue = [1.121, 0.902]\nclass = Not Engaged", fillcolor="#fae6d8"] ;
456 -> 464 ;
465 [label="gini = 0.0\nsamples = 1\nvalue = [1.121, 0.0]\nclass = Not Engaged", fillcolor="#e58139"] ;
464 -> 465 ;
466 [label="gini = 0.0\nsamples = 1\nvalue = [0.0, 0.902]\nclass = Engaged", fillcolor="#399de5"] ;
464 -> 466 ;
467 [label=" p_16 <= 1.802\ngini = 0.409\nsamples = 3\nvalue = [2.243, 0.902]\nclass = Not Engaged", fillcolor="#efb489"] ;
453 -> 467 ;
468 [label=" p_18 <= 0.453\ngini = 0.0\nsamples = 2\nvalue = [2.243, 0.0]\nclass = Not Engaged", fillcolor="#e58139"] ;
467 -> 468 ;
469 [label="gini = 0.0\nsamples = 1\nvalue = [1.121, 0.0]\nclass = Not Engaged", fillcolor="#e58139"] ;
468 -> 469 ;
470 [label="gini = 0.0\nsamples = 1\nvalue = [1.121, 0.0]\nclass = Not Engaged", fillcolor="#e58139"] ;
468 -> 470 ;
471 [label="gini = -0.0\nsamples = 1\nvalue = [0.0, 0.902]\nclass = Engaged", fillcolor="#399de5"] ;
467 -> 471 ;
472 [label=" p_2 <= 0.64\ngini = 0.498\nsamples = 60\nvalue = [28.034, 31.582]\nclass = Engaged", fillcolor="#e9f4fc"] ;
450 -> 472 ;
473 [label=" AU20_r <= 0.001\ngini = 0.496\nsamples = 51\nvalue = [28.034, 23.461]\nclass = Not Engaged", fillcolor="#fbeadf"] ;
472 -> 473 ;
474 [label=" p_24 <= -0.646\ngini = 0.477\nsamples = 45\nvalue = [28.034, 18.047]\nclass = Not Engaged", fillcolor="#f6d2b8"] ;
473 -> 474 ;
475 [label="gini = 0.0\nsamples = 4\nvalue = [0.0, 3.609]\nclass = Engaged", fillcolor="#399de5"] ;
474 -> 475 ;
476 [label=" p_7 <= 0.009\ngini = 0.449\nsamples = 41\nvalue = [28.034, 14.437]\nclass = Not Engaged", fillcolor="#f2c29f"] ;
474 -> 476 ;
477 [label=" p_6 <= 0.187\ngini = 0.489\nsamples = 16\nvalue = [6.728, 9.023]\nclass = Engaged", fillcolor="#cde6f8"] ;
476 -> 477 ;
478 [label=" p_6 <= -0.441\ngini = 0.213\nsamples = 10\nvalue = [1.121, 8.121]\nclass = Engaged", fillcolor="#54abe9"] ;
477 -> 478 ;
479 [label="gini = 0.0\nsamples = 1\nvalue = [1.121, 0.0]\nclass = Not Engaged", fillcolor="#e58139"] ;
478 -> 479 ;
480 [label="gini = 0.0\nsamples = 9\nvalue = [0.0, 8.121]\nclass = Engaged", fillcolor="#399de5"] ;
478 -> 480 ;
481 [label=" p_9 <= 0.428\ngini = 0.239\nsamples = 6\nvalue = [5.607, 0.902]\nclass = Not Engaged", fillcolor="#e99559"] ;
477 -> 481 ;
482 [label=" p_20 <= -0.344\ngini = 0.0\nsamples = 5\nvalue = [5.607, 0.0]\nclass = Not Engaged", fillcolor="#e58139"] ;
481 -> 482 ;
483 [label="gini = 0.0\nsamples = 1\nvalue = [1.121, 0.0]\nclass = Not Engaged", fillcolor="#e58139"] ;
482 -> 483 ;
484 [label="gini = 0.0\nsamples = 4\nvalue = [4.485, 0.0]\nclass = Not Engaged", fillcolor="#e58139"] ;
482 -> 484 ;
485 [label="gini = -0.0\nsamples = 1\nvalue = [0.0, 0.902]\nclass = Engaged", fillcolor="#399de5"] ;
481 -> 485 ;
486 [label=" p_21 <= -0.605\ngini = 0.323\nsamples = 25\nvalue = [21.306, 5.414]\nclass = Not Engaged", fillcolor="#eca16b"] ;
476 -> 486 ;
487 [label="gini = 0.0\nsamples = 2\nvalue = [0.0, 1.805]\nclass = Engaged", fillcolor="#399de5"] ;
486 -> 487 ;
488 [label=" p_15 <= 0.641\ngini = 0.248\nsamples = 23\nvalue = [21.306, 3.609]\nclass = Not Engaged", fillcolor="#e9965b"] ;
486 -> 488 ;
489 [label=" AU17_r <= -1.229\ngini = 0.151\nsamples = 20\nvalue = [20.185, 1.805]\nclass = Not Engaged", fillcolor="#e78c4b"] ;
488 -> 489 ;
490 [label=" gaze_1_z <= -0.808\ngini = 0.082\nsamples = 19\nvalue = [20.185, 0.902]\nclass = Not Engaged", fillcolor="#e68742"] ;
489 -> 490 ;
491 [label="gini = 0.0\nsamples = 1\nvalue = [0.0, 0.902]\nclass = Engaged", fillcolor="#399de5"] ;
490 -> 491 ;
492 [label="gini = 0.0\nsamples = 18\nvalue = [20.185, 0.0]\nclass = Not Engaged", fillcolor="#e58139"] ;
490 -> 492 ;
493 [label="gini = -0.0\nsamples = 1\nvalue = [0.0, 0.902]\nclass = Engaged", fillcolor="#399de5"] ;
489 -> 493 ;
494 [label=" p_1 <= -0.207\ngini = 0.473\nsamples = 3\nvalue = [1.121, 1.805]\nclass = Engaged", fillcolor="#b4daf5"] ;
488 -> 494 ;
495 [label="gini = -0.0\nsamples = 2\nvalue = [0.0, 1.805]\nclass = Engaged", fillcolor="#399de5"] ;
494 -> 495 ;
496 [label="gini = 0.0\nsamples = 1\nvalue = [1.121, 0.0]\nclass = Not Engaged", fillcolor="#e58139"] ;
494 -> 496 ;
497 [label=" p_3 <= 0.178\ngini = 0.0\nsamples = 6\nvalue = [0.0, 5.414]\nclass = Engaged", fillcolor="#399de5"] ;
473 -> 497 ;
498 [label="gini = 0.0\nsamples = 1\nvalue = [0.0, 0.902]\nclass = Engaged", fillcolor="#399de5"] ;
497 -> 498 ;
499 [label="gini = 0.0\nsamples = 5\nvalue = [0.0, 4.512]\nclass = Engaged", fillcolor="#399de5"] ;
497 -> 499 ;
500 [label=" p_7 <= -1.624\ngini = 0.0\nsamples = 9\nvalue = [0.0, 8.121]\nclass = Engaged", fillcolor="#399de5"] ;
472 -> 500 ;
501 [label="gini = 0.0\nsamples = 1\nvalue = [0.0, 0.902]\nclass = Engaged", fillcolor="#399de5"] ;
500 -> 501 ;
502 [label="gini = 0.0\nsamples = 8\nvalue = [0.0, 7.219]\nclass = Engaged", fillcolor="#399de5"] ;
500 -> 502 ;
503 [label=" p_26 <= 0.477\ngini = 0.369\nsamples = 34\nvalue = [7.85, 24.363]\nclass = Engaged", fillcolor="#79bded"] ;
383 -> 503 ;
504 [label="gini = -0.0\nsamples = 18\nvalue = [0.0, 16.242]\nclass = Engaged", fillcolor="#399de5"] ;
503 -> 504 ;
505 [label=" p_7 <= -0.055\ngini = 0.5\nsamples = 16\nvalue = [7.85, 8.121]\nclass = Engaged", fillcolor="#f8fcfe"] ;
503 -> 505 ;
506 [label=" AU14_r <= -0.341\ngini = 0.432\nsamples = 11\nvalue = [7.85, 3.609]\nclass = Not Engaged", fillcolor="#f1bb94"] ;
505 -> 506 ;
507 [label=" p_19 <= 0.894\ngini = 0.185\nsamples = 8\nvalue = [7.85, 0.902]\nclass = Not Engaged", fillcolor="#e88f50"] ;
506 -> 507 ;
508 [label=" p_31 <= -0.374\ngini = 0.0\nsamples = 7\nvalue = [7.85, 0.0]\nclass = Not Engaged", fillcolor="#e58139"] ;
507 -> 508 ;
509 [label="gini = 0.0\nsamples = 1\nvalue = [1.121, 0.0]\nclass = Not Engaged", fillcolor="#e58139"] ;
508 -> 509 ;
510 [label="gini = 0.0\nsamples = 6\nvalue = [6.728, 0.0]\nclass = Not Engaged", fillcolor="#e58139"] ;
508 -> 510 ;
511 [label="gini = -0.0\nsamples = 1\nvalue = [0.0, 0.902]\nclass = Engaged", fillcolor="#399de5"] ;
507 -> 511 ;
512 [label="gini = -0.0\nsamples = 3\nvalue = [0.0, 2.707]\nclass = Engaged", fillcolor="#399de5"] ;
506 -> 512 ;
513 [label="gini = 0.0\nsamples = 5\nvalue = [0.0, 4.512]\nclass = Engaged", fillcolor="#399de5"] ;
505 -> 513 ;
514 [label=" p_8 <= 2.464\ngini = 0.132\nsamples = 23\nvalue = [23.549, 1.805]\nclass = Not Engaged", fillcolor="#e78b48"] ;
382 -> 514 ;
515 [label=" AU15_c <= 1.111\ngini = 0.071\nsamples = 22\nvalue = [23.549, 0.902]\nclass = Not Engaged", fillcolor="#e68641"] ;
514 -> 515 ;
516 [label="gini = 0.0\nsamples = 21\nvalue = [23.549, 0.0]\nclass = Not Engaged", fillcolor="#e58139"] ;
515 -> 516 ;
517 [label="gini = -0.0\nsamples = 1\nvalue = [0.0, 0.902]\nclass = Engaged", fillcolor="#399de5"] ;
515 -> 517 ;
518 [label="gini = -0.0\nsamples = 1\nvalue = [0.0, 0.902]\nclass = Engaged", fillcolor="#399de5"] ;
514 -> 518 ;
519 [label=" p_13 <= -0.871\ngini = 0.342\nsamples = 85\nvalue = [70.646, 19.851]\nclass = Not Engaged", fillcolor="#eca471"] ;
381 -> 519 ;
520 [label="gini = 0.0\nsamples = 21\nvalue = [23.549, 0.0]\nclass = Not Engaged", fillcolor="#e58139"] ;
519 -> 520 ;
521 [label=" AU07_r <= -0.371\ngini = 0.417\nsamples = 64\nvalue = [47.097, 19.851]\nclass = Not Engaged", fillcolor="#f0b68c"] ;
519 -> 521 ;
522 [label=" p_0 <= -0.664\ngini = 0.381\nsamples = 60\nvalue = [47.097, 16.242]\nclass = Not Engaged", fillcolor="#eeac7d"] ;
521 -> 522 ;
523 [label=" p_3 <= 0.635\ngini = 0.494\nsamples = 20\nvalue = [11.214, 9.023]\nclass = Not Engaged", fillcolor="#fae6d8"] ;
522 -> 523 ;
524 [label="gini = 0.0\nsamples = 7\nvalue = [0.0, 6.316]\nclass = Engaged", fillcolor="#399de5"] ;
523 -> 524 ;
525 [label=" gaze_1_z <= -0.389\ngini = 0.313\nsamples = 13\nvalue = [11.214, 2.707]\nclass = Not Engaged", fillcolor="#eb9f69"] ;
523 -> 525 ;
526 [label="gini = 0.0\nsamples = 8\nvalue = [8.971, 0.0]\nclass = Not Engaged", fillcolor="#e58139"] ;
525 -> 526 ;
527 [label=" p_1 <= 1.459\ngini = 0.496\nsamples = 5\nvalue = [2.243, 2.707]\nclass = Engaged", fillcolor="#ddeefb"] ;
525 -> 527 ;
528 [label="gini = 0.0\nsamples = 2\nvalue = [2.243, 0.0]\nclass = Not Engaged", fillcolor="#e58139"] ;
527 -> 528 ;
529 [label="gini = -0.0\nsamples = 3\nvalue = [0.0, 2.707]\nclass = Engaged", fillcolor="#399de5"] ;
527 -> 529 ;
530 [label=" p_10 <= -0.28\ngini = 0.279\nsamples = 40\nvalue = [35.884, 7.219]\nclass = Not Engaged", fillcolor="#ea9a61"] ;
522 -> 530 ;
531 [label=" p_19 <= -0.123\ngini = 0.496\nsamples = 5\nvalue = [2.243, 2.707]\nclass = Engaged", fillcolor="#ddeefb"] ;
530 -> 531 ;
532 [label="gini = 0.0\nsamples = 2\nvalue = [2.243, 0.0]\nclass = Not Engaged", fillcolor="#e58139"] ;
531 -> 532 ;
533 [label="gini = -0.0\nsamples = 3\nvalue = [0.0, 2.707]\nclass = Engaged", fillcolor="#399de5"] ;
531 -> 533 ;
534 [label=" p_20 <= -0.782\ngini = 0.209\nsamples = 35\nvalue = [33.641, 4.512]\nclass = Not Engaged", fillcolor="#e89254"] ;
530 -> 534 ;
535 [label=" p_24 <= -0.307\ngini = 0.427\nsamples = 14\nvalue = [10.092, 4.512]\nclass = Not Engaged", fillcolor="#f1b992"] ;
534 -> 535 ;
536 [label="gini = 0.0\nsamples = 7\nvalue = [7.85, 0.0]\nclass = Not Engaged", fillcolor="#e58139"] ;
535 -> 536 ;
537 [label=" AU14_r <= -0.82\ngini = 0.444\nsamples = 7\nvalue = [2.243, 4.512]\nclass = Engaged", fillcolor="#9bcef2"] ;
535 -> 537 ;
538 [label="gini = -0.0\nsamples = 5\nvalue = [0.0, 4.512]\nclass = Engaged", fillcolor="#399de5"] ;
537 -> 538 ;
539 [label=" p_23 <= 0.298\ngini = 0.0\nsamples = 2\nvalue = [2.243, 0.0]\nclass = Not Engaged", fillcolor="#e58139"] ;
537 -> 539 ;
540 [label="gini = 0.0\nsamples = 1\nvalue = [1.121, 0.0]\nclass = Not Engaged", fillcolor="#e58139"] ;
539 -> 540 ;
541 [label="gini = 0.0\nsamples = 1\nvalue = [1.121, 0.0]\nclass = Not Engaged", fillcolor="#e58139"] ;
539 -> 541 ;
542 [label="gini = -0.0\nsamples = 21\nvalue = [23.549, 0.0]\nclass = Not Engaged", fillcolor="#e58139"] ;
534 -> 542 ;
543 [label="gini = -0.0\nsamples = 4\nvalue = [0.0, 3.609]\nclass = Engaged", fillcolor="#399de5"] ;
521 -> 543 ;
544 [label=" p_3 <= -0.216\ngini = 0.495\nsamples = 683\nvalue = [303.89, 371.764]\nclass = Engaged", fillcolor="#dbedfa"] ;
380 -> 544 ;
545 [label=" p_27 <= 0.53\ngini = 0.493\nsamples = 196\nvalue = [111.015, 87.527]\nclass = Not Engaged", fillcolor="#f9e4d5"] ;
544 -> 545 ;
546 [label=" p_26 <= -0.652\ngini = 0.487\nsamples = 188\nvalue = [111.015, 80.308]\nclass = Not Engaged", fillcolor="#f8dcc8"] ;
545 -> 546 ;
547 [label=" AU17_r <= -1.08\ngini = 0.293\nsamples = 33\nvalue = [29.155, 6.316]\nclass = Not Engaged", fillcolor="#eb9c64"] ;
546 -> 547 ;
548 [label="gini = 0.0\nsamples = 2\nvalue = [0.0, 1.805]\nclass = Engaged", fillcolor="#399de5"] ;
547 -> 548 ;
549 [label=" p_16 <= -1.302\ngini = 0.232\nsamples = 31\nvalue = [29.155, 4.512]\nclass = Not Engaged", fillcolor="#e99458"] ;
547 -> 549 ;
550 [label="gini = 0.0\nsamples = 1\nvalue = [0.0, 0.902]\nclass = Engaged", fillcolor="#399de5"] ;
549 -> 550 ;
551 [label=" p_6 <= 2.802\ngini = 0.196\nsamples = 30\nvalue = [29.155, 3.609]\nclass = Not Engaged", fillcolor="#e89152"] ;
549 -> 551 ;
552 [label=" AU17_r <= 0.963\ngini = 0.155\nsamples = 29\nvalue = [29.155, 2.707]\nclass = Not Engaged", fillcolor="#e78d4b"] ;
551 -> 552 ;
553 [label=" AU09_r <= -0.293\ngini = 0.11\nsamples = 28\nvalue = [29.155, 1.805]\nclass = Not Engaged", fillcolor="#e78945"] ;
552 -> 553 ;
554 [label="gini = 0.0\nsamples = 22\nvalue = [24.67, 0.0]\nclass = Not Engaged", fillcolor="#e58139"] ;
553 -> 554 ;
555 [label=" AU20_r <= -0.31\ngini = 0.409\nsamples = 6\nvalue = [4.485, 1.805]\nclass = Not Engaged", fillcolor="#efb489"] ;
553 -> 555 ;
556 [label=" p_19 <= -0.813\ngini = 0.0\nsamples = 4\nvalue = [4.485, 0.0]\nclass = Not Engaged", fillcolor="#e58139"] ;
555 -> 556 ;
557 [label="gini = 0.0\nsamples = 1\nvalue = [1.121, 0.0]\nclass = Not Engaged", fillcolor="#e58139"] ;
556 -> 557 ;
558 [label="gini = 0.0\nsamples = 3\nvalue = [3.364, 0.0]\nclass = Not Engaged", fillcolor="#e58139"] ;
556 -> 558 ;
559 [label="gini = -0.0\nsamples = 2\nvalue = [0.0, 1.805]\nclass = Engaged", fillcolor="#399de5"] ;
555 -> 559 ;
560 [label="gini = -0.0\nsamples = 1\nvalue = [0.0, 0.902]\nclass = Engaged", fillcolor="#399de5"] ;
552 -> 560 ;
561 [label="gini = 0.0\nsamples = 1\nvalue = [0.0, 0.902]\nclass = Engaged", fillcolor="#399de5"] ;
551 -> 561 ;
562 [label=" AU12_r <= -0.653\ngini = 0.499\nsamples = 155\nvalue = [81.86, 73.992]\nclass = Not Engaged", fillcolor="#fdf3ec"] ;
546 -> 562 ;
563 [label=" AU25_r <= 0.264\ngini = 0.483\nsamples = 119\nvalue = [71.767, 49.629]\nclass = Not Engaged", fillcolor="#f7d8c2"] ;
562 -> 563 ;
564 [label=" p_21 <= -0.444\ngini = 0.496\nsamples = 108\nvalue = [59.432, 49.629]\nclass = Not Engaged", fillcolor="#fbeade"] ;
563 -> 564 ;
565 [label=" p_20 <= 0.234\ngini = 0.414\nsamples = 32\nvalue = [8.971, 21.656]\nclass = Engaged", fillcolor="#8bc6f0"] ;
564 -> 565 ;
566 [label=" p_16 <= -0.934\ngini = 0.121\nsamples = 19\nvalue = [1.121, 16.242]\nclass = Engaged", fillcolor="#47a4e7"] ;
565 -> 566 ;
567 [label="gini = 0.0\nsamples = 1\nvalue = [1.121, 0.0]\nclass = Not Engaged", fillcolor="#e58139"] ;
566 -> 567 ;
568 [label="gini = -0.0\nsamples = 18\nvalue = [0.0, 16.242]\nclass = Engaged", fillcolor="#399de5"] ;
566 -> 568 ;
569 [label=" AU25_r <= -0.692\ngini = 0.483\nsamples = 13\nvalue = [7.85, 5.414]\nclass = Not Engaged", fillcolor="#f7d8c2"] ;
565 -> 569 ;
570 [label=" p_21 <= -0.524\ngini = 0.185\nsamples = 8\nvalue = [7.85, 0.902]\nclass = Not Engaged", fillcolor="#e88f50"] ;
569 -> 570 ;
571 [label="gini = -0.0\nsamples = 7\nvalue = [7.85, 0.0]\nclass = Not Engaged", fillcolor="#e58139"] ;
570 -> 571 ;
572 [label="gini = -0.0\nsamples = 1\nvalue = [0.0, 0.902]\nclass = Engaged", fillcolor="#399de5"] ;
570 -> 572 ;
573 [label="gini = 0.0\nsamples = 5\nvalue = [0.0, 4.512]\nclass = Engaged", fillcolor="#399de5"] ;
569 -> 573 ;
574 [label=" p_1 <= -1.05\ngini = 0.459\nsamples = 76\nvalue = [50.461, 27.973]\nclass = Not Engaged", fillcolor="#f3c7a7"] ;
564 -> 574 ;
575 [label=" p_2 <= -0.929\ngini = 0.463\nsamples = 19\nvalue = [6.728, 11.73]\nclass = Engaged", fillcolor="#abd5f4"] ;
574 -> 575 ;
576 [label="gini = 0.0\nsamples = 4\nvalue = [4.485, 0.0]\nclass = Not Engaged", fillcolor="#e58139"] ;
575 -> 576 ;
577 [label=" p_5 <= 0.633\ngini = 0.269\nsamples = 15\nvalue = [2.243, 11.73]\nclass = Engaged", fillcolor="#5fb0ea"] ;
575 -> 577 ;
578 [label="gini = -0.0\nsamples = 13\nvalue = [0.0, 11.73]\nclass = Engaged", fillcolor="#399de5"] ;
577 -> 578 ;
579 [label=" p_19 <= 0.807\ngini = 0.0\nsamples = 2\nvalue = [2.243, 0.0]\nclass = Not Engaged", fillcolor="#e58139"] ;
577 -> 579 ;
580 [label="gini = 0.0\nsamples = 1\nvalue = [1.121, 0.0]\nclass = Not Engaged", fillcolor="#e58139"] ;
579 -> 580 ;
581 [label="gini = 0.0\nsamples = 1\nvalue = [1.121, 0.0]\nclass = Not Engaged", fillcolor="#e58139"] ;
579 -> 581 ;
582 [label=" p_2 <= -0.324\ngini = 0.395\nsamples = 57\nvalue = [43.733, 16.242]\nclass = Not Engaged", fillcolor="#efb083"] ;
574 -> 582 ;
583 [label=" AU01_r <= 0.615\ngini = 0.138\nsamples = 22\nvalue = [22.427, 1.805]\nclass = Not Engaged", fillcolor="#e78b49"] ;
582 -> 583 ;
584 [label=" AU04_r <= -0.767\ngini = 0.074\nsamples = 21\nvalue = [22.427, 0.902]\nclass = Not Engaged", fillcolor="#e68641"] ;
583 -> 584 ;
585 [label="gini = 0.0\nsamples = 20\nvalue = [22.427, 0.0]\nclass = Not Engaged", fillcolor="#e58139"] ;
584 -> 585 ;
586 [label="gini = -0.0\nsamples = 1\nvalue = [0.0, 0.902]\nclass = Engaged", fillcolor="#399de5"] ;
584 -> 586 ;
587 [label="gini = -0.0\nsamples = 1\nvalue = [0.0, 0.902]\nclass = Engaged", fillcolor="#399de5"] ;
583 -> 587 ;
588 [label=" AU17_r <= -0.861\ngini = 0.482\nsamples = 35\nvalue = [21.306, 14.437]\nclass = Not Engaged", fillcolor="#f7d6bf"] ;
582 -> 588 ;
589 [label="gini = 0.0\nsamples = 7\nvalue = [7.85, 0.0]\nclass = Not Engaged", fillcolor="#e58139"] ;
588 -> 589 ;
590 [label=" p_18 <= 0.354\ngini = 0.499\nsamples = 28\nvalue = [13.456, 14.437]\nclass = Engaged", fillcolor="#f2f8fd"] ;
588 -> 590 ;
591 [label=" gaze_1_z <= 0.152\ngini = 0.454\nsamples = 20\nvalue = [13.456, 7.219]\nclass = Not Engaged", fillcolor="#f3c5a3"] ;
590 -> 591 ;
592 [label=" p_15 <= -0.609\ngini = 0.376\nsamples = 17\nvalue = [13.456, 4.512]\nclass = Not Engaged", fillcolor="#eeab7b"] ;
591 -> 592 ;
593 [label=" p_18 <= -1.33\ngini = 0.0\nsamples = 9\nvalue = [10.092, 0.0]\nclass = Not Engaged", fillcolor="#e58139"] ;
592 -> 593 ;
594 [label="gini = 0.0\nsamples = 1\nvalue = [1.121, 0.0]\nclass = Not Engaged", fillcolor="#e58139"] ;
593 -> 594 ;
595 [label="gini = 0.0\nsamples = 8\nvalue = [8.971, 0.0]\nclass = Not Engaged", fillcolor="#e58139"] ;
593 -> 595 ;
596 [label=" AU06_r <= -0.718\ngini = 0.489\nsamples = 8\nvalue = [3.364, 4.512]\nclass = Engaged", fillcolor="#cde6f8"] ;
592 -> 596 ;
597 [label="gini = 0.0\nsamples = 5\nvalue = [0.0, 4.512]\nclass = Engaged", fillcolor="#399de5"] ;
596 -> 597 ;
598 [label=" AU25_r <= -0.556\ngini = 0.0\nsamples = 3\nvalue = [3.364, 0.0]\nclass = Not Engaged", fillcolor="#e58139"] ;
596 -> 598 ;
599 [label="gini = 0.0\nsamples = 1\nvalue = [1.121, 0.0]\nclass = Not Engaged", fillcolor="#e58139"] ;
598 -> 599 ;
600 [label="gini = 0.0\nsamples = 2\nvalue = [2.243, 0.0]\nclass = Not Engaged", fillcolor="#e58139"] ;
598 -> 600 ;
601 [label="gini = 0.0\nsamples = 3\nvalue = [0.0, 2.707]\nclass = Engaged", fillcolor="#399de5"] ;
591 -> 601 ;
602 [label="gini = 0.0\nsamples = 8\nvalue = [0.0, 7.219]\nclass = Engaged", fillcolor="#399de5"] ;
590 -> 602 ;
603 [label="gini = 0.0\nsamples = 11\nvalue = [12.335, 0.0]\nclass = Not Engaged", fillcolor="#e58139"] ;
563 -> 603 ;
604 [label=" p_0 <= 0.197\ngini = 0.414\nsamples = 36\nvalue = [10.092, 24.363]\nclass = Engaged", fillcolor="#8bc6f0"] ;
562 -> 604 ;
605 [label=" AU17_r <= -0.552\ngini = 0.454\nsamples = 10\nvalue = [6.728, 3.609]\nclass = Not Engaged", fillcolor="#f3c5a3"] ;
604 -> 605 ;
606 [label="gini = 0.0\nsamples = 3\nvalue = [0.0, 2.707]\nclass = Engaged", fillcolor="#399de5"] ;
605 -> 606 ;
607 [label=" p_15 <= 1.914\ngini = 0.209\nsamples = 7\nvalue = [6.728, 0.902]\nclass = Not Engaged", fillcolor="#e89254"] ;
605 -> 607 ;
608 [label="gini = 0.0\nsamples = 6\nvalue = [6.728, 0.0]\nclass = Not Engaged", fillcolor="#e58139"] ;
607 -> 608 ;
609 [label="gini = -0.0\nsamples = 1\nvalue = [0.0, 0.902]\nclass = Engaged", fillcolor="#399de5"] ;
607 -> 609 ;
610 [label=" p_31 <= 0.51\ngini = 0.24\nsamples = 26\nvalue = [3.364, 20.754]\nclass = Engaged", fillcolor="#59ade9"] ;
604 -> 610 ;
611 [label=" AU07_r <= 0.274\ngini = 0.176\nsamples = 25\nvalue = [2.243, 20.754]\nclass = Engaged", fillcolor="#4ea8e8"] ;
610 -> 611 ;
612 [label=" gaze_1_z <= -0.91\ngini = 0.097\nsamples = 24\nvalue = [1.121, 20.754]\nclass = Engaged", fillcolor="#44a2e6"] ;
611 -> 612 ;
613 [label=" p_23 <= -0.326\ngini = 0.494\nsamples = 2\nvalue = [1.121, 0.902]\nclass = Not Engaged", fillcolor="#fae6d8"] ;
612 -> 613 ;
614 [label="gini = 0.0\nsamples = 1\nvalue = [1.121, 0.0]\nclass = Not Engaged", fillcolor="#e58139"] ;
613 -> 614 ;
615 [label="gini = 0.0\nsamples = 1\nvalue = [0.0, 0.902]\nclass = Engaged", fillcolor="#399de5"] ;
613 -> 615 ;
616 [label="gini = 0.0\nsamples = 22\nvalue = [0.0, 19.851]\nclass = Engaged", fillcolor="#399de5"] ;
612 -> 616 ;
617 [label="gini = 0.0\nsamples = 1\nvalue = [1.121, 0.0]\nclass = Not Engaged", fillcolor="#e58139"] ;
611 -> 617 ;
618 [label="gini = 0.0\nsamples = 1\nvalue = [1.121, 0.0]\nclass = Not Engaged", fillcolor="#e58139"] ;
610 -> 618 ;
619 [label="gini = 0.0\nsamples = 8\nvalue = [0.0, 7.219]\nclass = Engaged", fillcolor="#399de5"] ;
545 -> 619 ;
620 [label=" p_30 <= 0.159\ngini = 0.482\nsamples = 487\nvalue = [192.875, 284.237]\nclass = Engaged", fillcolor="#bfdff7"] ;
544 -> 620 ;
621 [label=" p_20 <= 1.172\ngini = 0.469\nsamples = 438\nvalue = [160.355, 266.19]\nclass = Engaged", fillcolor="#b0d8f5"] ;
620 -> 621 ;
622 [label=" p_26 <= 0.118\ngini = 0.449\nsamples = 371\nvalue = [122.229, 236.413]\nclass = Engaged", fillcolor="#9fd0f2"] ;
621 -> 622 ;
623 [label=" p_11 <= 0.732\ngini = 0.488\nsamples = 202\nvalue = [84.102, 114.597]\nclass = Engaged", fillcolor="#cae5f8"] ;
622 -> 623 ;
624 [label=" p_12 <= -0.935\ngini = 0.466\nsamples = 168\nvalue = [60.554, 102.867]\nclass = Engaged", fillcolor="#aed7f4"] ;
623 -> 624 ;
625 [label=" p_13 <= -1.32\ngini = 0.422\nsamples = 20\nvalue = [14.578, 6.316]\nclass = Not Engaged", fillcolor="#f0b88f"] ;
624 -> 625 ;
626 [label="gini = 0.0\nsamples = 4\nvalue = [0.0, 3.609]\nclass = Engaged", fillcolor="#399de5"] ;
625 -> 626 ;
627 [label=" p_5 <= -0.319\ngini = 0.264\nsamples = 16\nvalue = [14.578, 2.707]\nclass = Not Engaged", fillcolor="#ea985e"] ;
625 -> 627 ;
628 [label=" p_13 <= -0.477\ngini = 0.494\nsamples = 6\nvalue = [3.364, 2.707]\nclass = Not Engaged", fillcolor="#fae6d8"] ;
627 -> 628 ;
629 [label="gini = 0.0\nsamples = 3\nvalue = [3.364, 0.0]\nclass = Not Engaged", fillcolor="#e58139"] ;
628 -> 629 ;
630 [label="gini = 0.0\nsamples = 3\nvalue = [0.0, 2.707]\nclass = Engaged", fillcolor="#399de5"] ;
628 -> 630 ;
631 [label="gini = 0.0\nsamples = 10\nvalue = [11.214, 0.0]\nclass = Not Engaged", fillcolor="#e58139"] ;
627 -> 631 ;
632 [label=" p_0 <= -1.031\ngini = 0.437\nsamples = 148\nvalue = [45.976, 96.55]\nclass = Engaged", fillcolor="#97ccf1"] ;
624 -> 632 ;
633 [label=" p_10 <= -0.56\ngini = 0.461\nsamples = 17\nvalue = [11.214, 6.316]\nclass = Not Engaged", fillcolor="#f4c8a9"] ;
632 -> 633 ;
634 [label="gini = 0.0\nsamples = 3\nvalue = [0.0, 2.707]\nclass = Engaged", fillcolor="#399de5"] ;
633 -> 634 ;
635 [label=" p_31 <= 0.493\ngini = 0.368\nsamples = 14\nvalue = [11.214, 3.609]\nclass = Not Engaged", fillcolor="#edaa79"] ;
633 -> 635 ;
636 [label=" p_15 <= -0.548\ngini = 0.239\nsamples = 12\nvalue = [11.214, 1.805]\nclass = Not Engaged", fillcolor="#e99559"] ;
635 -> 636 ;
637 [label="gini = 0.0\nsamples = 2\nvalue = [0.0, 1.805]\nclass = Engaged", fillcolor="#399de5"] ;
636 -> 637 ;
638 [label=" AU45_r <= -0.666\ngini = 0.0\nsamples = 10\nvalue = [11.214, 0.0]\nclass = Not Engaged", fillcolor="#e58139"] ;
636 -> 638 ;
639 [label="gini = 0.0\nsamples = 4\nvalue = [4.485, 0.0]\nclass = Not Engaged", fillcolor="#e58139"] ;
638 -> 639 ;
640 [label="gini = 0.0\nsamples = 6\nvalue = [6.728, 0.0]\nclass = Not Engaged", fillcolor="#e58139"] ;
638 -> 640 ;
641 [label="gini = -0.0\nsamples = 2\nvalue = [0.0, 1.805]\nclass = Engaged", fillcolor="#399de5"] ;
635 -> 641 ;
642 [label=" p_19 <= -1.234\ngini = 0.402\nsamples = 131\nvalue = [34.762, 90.234]\nclass = Engaged", fillcolor="#85c3ef"] ;
632 -> 642 ;
643 [label=" p_6 <= 1.029\ngini = 0.368\nsamples = 7\nvalue = [5.607, 1.805]\nclass = Not Engaged", fillcolor="#edaa79"] ;
642 -> 643 ;
644 [label=" AU17_r <= -0.94\ngini = 0.0\nsamples = 5\nvalue = [5.607, 0.0]\nclass = Not Engaged", fillcolor="#e58139"] ;
643 -> 644 ;
645 [label="gini = 0.0\nsamples = 1\nvalue = [1.121, 0.0]\nclass = Not Engaged", fillcolor="#e58139"] ;
644 -> 645 ;
646 [label="gini = 0.0\nsamples = 4\nvalue = [4.485, 0.0]\nclass = Not Engaged", fillcolor="#e58139"] ;
644 -> 646 ;
647 [label="gini = -0.0\nsamples = 2\nvalue = [0.0, 1.805]\nclass = Engaged", fillcolor="#399de5"] ;
643 -> 647 ;
648 [label=" AU05_r <= 1.246\ngini = 0.373\nsamples = 124\nvalue = [29.155, 88.429]\nclass = Engaged", fillcolor="#7abdee"] ;
642 -> 648 ;
649 [label=" p_15 <= 1.795\ngini = 0.336\nsamples = 117\nvalue = [23.549, 86.625]\nclass = Engaged", fillcolor="#6fb8ec"] ;
648 -> 649 ;
650 [label=" p_2 <= -0.208\ngini = 0.309\nsamples = 113\nvalue = [20.185, 85.722]\nclass = Engaged", fillcolor="#68b4eb"] ;
649 -> 650 ;
651 [label=" AU23_r <= 0.632\ngini = 0.194\nsamples = 78\nvalue = [7.85, 64.066]\nclass = Engaged", fillcolor="#51a9e8"] ;
650 -> 651 ;
652 [label=" p_21 <= 2.945\ngini = 0.15\nsamples = 75\nvalue = [5.607, 63.164]\nclass = Engaged", fillcolor="#4ba6e7"] ;
651 -> 652 ;
653 [label=" AU45_r <= 1.634\ngini = 0.124\nsamples = 74\nvalue = [4.485, 63.164]\nclass = Engaged", fillcolor="#47a4e7"] ;
652 -> 653 ;
654 [label=" p_0 <= 1.198\ngini = 0.069\nsamples = 69\nvalue = [2.243, 60.457]\nclass = Engaged", fillcolor="#40a1e6"] ;
653 -> 654 ;
655 [label=" AU20_r <= 1.037\ngini = 0.036\nsamples = 67\nvalue = [1.121, 59.554]\nclass = Engaged", fillcolor="#3d9fe5"] ;
654 -> 655 ;
656 [label="gini = 0.0\nsamples = 63\nvalue = [0.0, 56.847]\nclass = Engaged", fillcolor="#399de5"] ;
655 -> 656 ;
657 [label=" AU20_r <= 1.762\ngini = 0.414\nsamples = 4\nvalue = [1.121, 2.707]\nclass = Engaged", fillcolor="#8bc6f0"] ;
655 -> 657 ;
658 [label="gini = 0.0\nsamples = 1\nvalue = [1.121, 0.0]\nclass = Not Engaged", fillcolor="#e58139"] ;
657 -> 658 ;
659 [label="gini = -0.0\nsamples = 3\nvalue = [0.0, 2.707]\nclass = Engaged", fillcolor="#399de5"] ;
657 -> 659 ;
660 [label=" p_27 <= 0.417\ngini = 0.494\nsamples = 2\nvalue = [1.121, 0.902]\nclass = Not Engaged", fillcolor="#fae6d8"] ;
654 -> 660 ;
661 [label="gini = 0.0\nsamples = 1\nvalue = [0.0, 0.902]\nclass = Engaged", fillcolor="#399de5"] ;
660 -> 661 ;
662 [label="gini = 0.0\nsamples = 1\nvalue = [1.121, 0.0]\nclass = Not Engaged", fillcolor="#e58139"] ;
660 -> 662 ;
663 [label=" AU20_r <= 0.208\ngini = 0.496\nsamples = 5\nvalue = [2.243, 2.707]\nclass = Engaged", fillcolor="#ddeefb"] ;
653 -> 663 ;
664 [label="gini = 0.0\nsamples = 2\nvalue = [2.243, 0.0]\nclass = Not Engaged", fillcolor="#e58139"] ;
663 -> 664 ;
665 [label="gini = -0.0\nsamples = 3\nvalue = [0.0, 2.707]\nclass = Engaged", fillcolor="#399de5"] ;
663 -> 665 ;
666 [label="gini = -0.0\nsamples = 1\nvalue = [1.121, 0.0]\nclass = Not Engaged", fillcolor="#e58139"] ;
652 -> 666 ;
667 [label=" p_5 <= 0.83\ngini = 0.409\nsamples = 3\nvalue = [2.243, 0.902]\nclass = Not Engaged", fillcolor="#efb489"] ;
651 -> 667 ;
668 [label=" AU10_r <= -0.834\ngini = 0.0\nsamples = 2\nvalue = [2.243, 0.0]\nclass = Not Engaged", fillcolor="#e58139"] ;
667 -> 668 ;
669 [label="gini = 0.0\nsamples = 1\nvalue = [1.121, 0.0]\nclass = Not Engaged", fillcolor="#e58139"] ;
668 -> 669 ;
670 [label="gini = 0.0\nsamples = 1\nvalue = [1.121, 0.0]\nclass = Not Engaged", fillcolor="#e58139"] ;
668 -> 670 ;
671 [label="gini = -0.0\nsamples = 1\nvalue = [0.0, 0.902]\nclass = Engaged", fillcolor="#399de5"] ;
667 -> 671 ;
672 [label=" p_2 <= -0.056\ngini = 0.462\nsamples = 35\nvalue = [12.335, 21.656]\nclass = Engaged", fillcolor="#aad5f4"] ;
650 -> 672 ;
673 [label="gini = 0.0\nsamples = 4\nvalue = [4.485, 0.0]\nclass = Not Engaged", fillcolor="#e58139"] ;
672 -> 673 ;
674 [label=" p_16 <= 0.455\ngini = 0.391\nsamples = 31\nvalue = [7.85, 21.656]\nclass = Engaged", fillcolor="#81c1ee"] ;
672 -> 674 ;
675 [label=" p_24 <= 0.629\ngini = 0.284\nsamples = 28\nvalue = [4.485, 21.656]\nclass = Engaged", fillcolor="#62b1ea"] ;
674 -> 675 ;
676 [label=" p_15 <= -1.961\ngini = 0.105\nsamples = 22\nvalue = [1.121, 18.949]\nclass = Engaged", fillcolor="#45a3e7"] ;
675 -> 676 ;
677 [label="gini = 0.0\nsamples = 1\nvalue = [1.121, 0.0]\nclass = Not Engaged", fillcolor="#e58139"] ;
676 -> 677 ;
678 [label="gini = 0.0\nsamples = 21\nvalue = [0.0, 18.949]\nclass = Engaged", fillcolor="#399de5"] ;
676 -> 678 ;
679 [label=" AU14_r <= -0.608\ngini = 0.494\nsamples = 6\nvalue = [3.364, 2.707]\nclass = Not Engaged", fillcolor="#fae6d8"] ;
675 -> 679 ;
680 [label="gini = 0.0\nsamples = 3\nvalue = [3.364, 0.0]\nclass = Not Engaged", fillcolor="#e58139"] ;
679 -> 680 ;
681 [label="gini = 0.0\nsamples = 3\nvalue = [0.0, 2.707]\nclass = Engaged", fillcolor="#399de5"] ;
679 -> 681 ;
682 [label="gini = 0.0\nsamples = 3\nvalue = [3.364, 0.0]\nclass = Not Engaged", fillcolor="#e58139"] ;
674 -> 682 ;
683 [label=" AU15_r <= -0.368\ngini = 0.334\nsamples = 4\nvalue = [3.364, 0.902]\nclass = Not Engaged", fillcolor="#eca36e"] ;
649 -> 683 ;
684 [label=" p_31 <= 0.026\ngini = 0.0\nsamples = 3\nvalue = [3.364, 0.0]\nclass = Not Engaged", fillcolor="#e58139"] ;
683 -> 684 ;
685 [label="gini = 0.0\nsamples = 1\nvalue = [1.121, 0.0]\nclass = Not Engaged", fillcolor="#e58139"] ;
684 -> 685 ;
686 [label="gini = 0.0\nsamples = 2\nvalue = [2.243, 0.0]\nclass = Not Engaged", fillcolor="#e58139"] ;
684 -> 686 ;
687 [label="gini = -0.0\nsamples = 1\nvalue = [0.0, 0.902]\nclass = Engaged", fillcolor="#399de5"] ;
683 -> 687 ;
688 [label=" p_23 <= -0.595\ngini = 0.368\nsamples = 7\nvalue = [5.607, 1.805]\nclass = Not Engaged", fillcolor="#edaa79"] ;
648 -> 688 ;
689 [label="gini = 0.0\nsamples = 2\nvalue = [0.0, 1.805]\nclass = Engaged", fillcolor="#399de5"] ;
688 -> 689 ;
690 [label=" AU15_r <= -0.464\ngini = 0.0\nsamples = 5\nvalue = [5.607, 0.0]\nclass = Not Engaged", fillcolor="#e58139"] ;
688 -> 690 ;
691 [label="gini = 0.0\nsamples = 1\nvalue = [1.121, 0.0]\nclass = Not Engaged", fillcolor="#e58139"] ;
690 -> 691 ;
692 [label="gini = 0.0\nsamples = 4\nvalue = [4.485, 0.0]\nclass = Not Engaged", fillcolor="#e58139"] ;
690 -> 692 ;
693 [label=" p_20 <= 0.141\ngini = 0.444\nsamples = 34\nvalue = [23.549, 11.73]\nclass = Not Engaged", fillcolor="#f2c09c"] ;
623 -> 693 ;
694 [label=" p_26 <= -0.023\ngini = 0.257\nsamples = 22\nvalue = [20.185, 3.609]\nclass = Not Engaged", fillcolor="#ea985c"] ;
693 -> 694 ;
695 [label=" AU15_r <= 1.227\ngini = 0.086\nsamples = 18\nvalue = [19.063, 0.902]\nclass = Not Engaged", fillcolor="#e68742"] ;
694 -> 695 ;
696 [label=" AU09_r <= -0.553\ngini = 0.0\nsamples = 17\nvalue = [19.063, 0.0]\nclass = Not Engaged", fillcolor="#e58139"] ;
695 -> 696 ;
697 [label="gini = 0.0\nsamples = 13\nvalue = [14.578, 0.0]\nclass = Not Engaged", fillcolor="#e58139"] ;
696 -> 697 ;
698 [label="gini = 0.0\nsamples = 4\nvalue = [4.485, 0.0]\nclass = Not Engaged", fillcolor="#e58139"] ;
696 -> 698 ;
699 [label="gini = -0.0\nsamples = 1\nvalue = [0.0, 0.902]\nclass = Engaged", fillcolor="#399de5"] ;
695 -> 699 ;
700 [label=" p_27 <= 0.198\ngini = 0.414\nsamples = 4\nvalue = [1.121, 2.707]\nclass = Engaged", fillcolor="#8bc6f0"] ;
694 -> 700 ;
701 [label="gini = 0.0\nsamples = 1\nvalue = [1.121, 0.0]\nclass = Not Engaged", fillcolor="#e58139"] ;
700 -> 701 ;
702 [label="gini = -0.0\nsamples = 3\nvalue = [0.0, 2.707]\nclass = Engaged", fillcolor="#399de5"] ;
700 -> 702 ;
703 [label=" p_3 <= 0.785\ngini = 0.414\nsamples = 12\nvalue = [3.364, 8.121]\nclass = Engaged", fillcolor="#8bc6f0"] ;
693 -> 703 ;
704 [label=" AU17_r <= 0.724\ngini = 0.213\nsamples = 10\nvalue = [1.121, 8.121]\nclass = Engaged", fillcolor="#54abe9"] ;
703 -> 704 ;
705 [label="gini = -0.0\nsamples = 9\nvalue = [0.0, 8.121]\nclass = Engaged", fillcolor="#399de5"] ;
704 -> 705 ;
706 [label="gini = 0.0\nsamples = 1\nvalue = [1.121, 0.0]\nclass = Not Engaged", fillcolor="#e58139"] ;
704 -> 706 ;
707 [label="gini = 0.0\nsamples = 2\nvalue = [2.243, 0.0]\nclass = Not Engaged", fillcolor="#e58139"] ;
703 -> 707 ;
708 [label=" AU25_r <= -0.829\ngini = 0.363\nsamples = 169\nvalue = [38.126, 121.816]\nclass = Engaged", fillcolor="#77bced"] ;
622 -> 708 ;
709 [label=" p_15 <= -1.404\ngini = 0.46\nsamples = 71\nvalue = [24.67, 44.215]\nclass = Engaged", fillcolor="#a7d4f4"] ;
708 -> 709 ;
710 [label=" p_12 <= 0.523\ngini = 0.239\nsamples = 6\nvalue = [5.607, 0.902]\nclass = Not Engaged", fillcolor="#e99559"] ;
709 -> 710 ;
711 [label=" p_18 <= -0.177\ngini = 0.0\nsamples = 5\nvalue = [5.607, 0.0]\nclass = Not Engaged", fillcolor="#e58139"] ;
710 -> 711 ;
712 [label="gini = 0.0\nsamples = 1\nvalue = [1.121, 0.0]\nclass = Not Engaged", fillcolor="#e58139"] ;
711 -> 712 ;
713 [label="gini = 0.0\nsamples = 4\nvalue = [4.485, 0.0]\nclass = Not Engaged", fillcolor="#e58139"] ;
711 -> 713 ;
714 [label="gini = -0.0\nsamples = 1\nvalue = [0.0, 0.902]\nclass = Engaged", fillcolor="#399de5"] ;
710 -> 714 ;
715 [label=" p_9 <= -0.2\ngini = 0.424\nsamples = 65\nvalue = [19.063, 43.312]\nclass = Engaged", fillcolor="#90c8f0"] ;
709 -> 715 ;
716 [label=" p_26 <= 1.262\ngini = 0.207\nsamples = 31\nvalue = [3.364, 25.266]\nclass = Engaged", fillcolor="#53aae8"] ;
715 -> 716 ;
717 [label=" p_7 <= -1.374\ngini = 0.084\nsamples = 28\nvalue = [1.121, 24.363]\nclass = Engaged", fillcolor="#42a2e6"] ;
716 -> 717 ;
718 [label="gini = 0.0\nsamples = 1\nvalue = [1.121, 0.0]\nclass = Not Engaged", fillcolor="#e58139"] ;
717 -> 718 ;
719 [label="gini = 0.0\nsamples = 27\nvalue = [0.0, 24.363]\nclass = Engaged", fillcolor="#399de5"] ;
717 -> 719 ;
720 [label=" gaze_1_z <= -0.311\ngini = 0.409\nsamples = 3\nvalue = [2.243, 0.902]\nclass = Not Engaged", fillcolor="#efb489"] ;
716 -> 720 ;
721 [label=" AU25_r <= -1.157\ngini = 0.0\nsamples = 2\nvalue = [2.243, 0.0]\nclass = Not Engaged", fillcolor="#e58139"] ;
720 -> 721 ;
722 [label="gini = 0.0\nsamples = 1\nvalue = [1.121, 0.0]\nclass = Not Engaged", fillcolor="#e58139"] ;
721 -> 722 ;
723 [label="gini = 0.0\nsamples = 1\nvalue = [1.121, 0.0]\nclass = Not Engaged", fillcolor="#e58139"] ;
721 -> 723 ;
724 [label="gini = -0.0\nsamples = 1\nvalue = [0.0, 0.902]\nclass = Engaged", fillcolor="#399de5"] ;
720 -> 724 ;
725 [label=" p_9 <= 0.087\ngini = 0.498\nsamples = 34\nvalue = [15.699, 18.047]\nclass = Engaged", fillcolor="#e5f2fc"] ;
715 -> 725 ;
726 [label=" AU45_r <= -0.557\ngini = 0.257\nsamples = 11\nvalue = [10.092, 1.805]\nclass = Not Engaged", fillcolor="#ea985c"] ;
725 -> 726 ;
727 [label="gini = 0.0\nsamples = 8\nvalue = [8.971, 0.0]\nclass = Not Engaged", fillcolor="#e58139"] ;
726 -> 727 ;
728 [label=" AU14_r <= -0.665\ngini = 0.473\nsamples = 3\nvalue = [1.121, 1.805]\nclass = Engaged", fillcolor="#b4daf5"] ;
726 -> 728 ;
729 [label="gini = -0.0\nsamples = 2\nvalue = [0.0, 1.805]\nclass = Engaged", fillcolor="#399de5"] ;
728 -> 729 ;
730 [label="gini = 0.0\nsamples = 1\nvalue = [1.121, 0.0]\nclass = Not Engaged", fillcolor="#e58139"] ;
728 -> 730 ;
731 [label=" p_19 <= -1.02\ngini = 0.382\nsamples = 23\nvalue = [5.607, 16.242]\nclass = Engaged", fillcolor="#7dbfee"] ;
725 -> 731 ;
732 [label=" AU45_r <= -0.731\ngini = 0.409\nsamples = 6\nvalue = [4.485, 1.805]\nclass = Not Engaged", fillcolor="#efb489"] ;
731 -> 732 ;
733 [label=" AU01_r <= -0.623\ngini = 0.0\nsamples = 4\nvalue = [4.485, 0.0]\nclass = Not Engaged", fillcolor="#e58139"] ;
732 -> 733 ;
734 [label="gini = 0.0\nsamples = 3\nvalue = [3.364, 0.0]\nclass = Not Engaged", fillcolor="#e58139"] ;
733 -> 734 ;
735 [label="gini = 0.0\nsamples = 1\nvalue = [1.121, 0.0]\nclass = Not Engaged", fillcolor="#e58139"] ;
733 -> 735 ;
736 [label="gini = -0.0\nsamples = 2\nvalue = [0.0, 1.805]\nclass = Engaged", fillcolor="#399de5"] ;
732 -> 736 ;
737 [label=" p_30 <= 0.136\ngini = 0.134\nsamples = 17\nvalue = [1.121, 14.437]\nclass = Engaged", fillcolor="#48a5e7"] ;
731 -> 737 ;
738 [label="gini = 0.0\nsamples = 16\nvalue = [0.0, 14.437]\nclass = Engaged", fillcolor="#399de5"] ;
737 -> 738 ;
739 [label="gini = 0.0\nsamples = 1\nvalue = [1.121, 0.0]\nclass = Not Engaged", fillcolor="#e58139"] ;
737 -> 739 ;
740 [label=" p_0 <= 0.902\ngini = 0.252\nsamples = 98\nvalue = [13.456, 77.601]\nclass = Engaged", fillcolor="#5baeea"] ;
708 -> 740 ;
741 [label=" p_11 <= -0.392\ngini = 0.206\nsamples = 94\nvalue = [10.092, 76.699]\nclass = Engaged", fillcolor="#53aae8"] ;
740 -> 741 ;
742 [label=" gaze_1_z <= -0.348\ngini = 0.496\nsamples = 15\nvalue = [6.728, 8.121]\nclass = Engaged", fillcolor="#ddeefb"] ;
741 -> 742 ;
743 [label=" AU02_r <= -0.382\ngini = 0.334\nsamples = 8\nvalue = [6.728, 1.805]\nclass = Not Engaged", fillcolor="#eca36e"] ;
742 -> 743 ;
744 [label=" p_10 <= -0.868\ngini = 0.0\nsamples = 6\nvalue = [6.728, 0.0]\nclass = Not Engaged", fillcolor="#e58139"] ;
743 -> 744 ;
745 [label="gini = 0.0\nsamples = 1\nvalue = [1.121, 0.0]\nclass = Not Engaged", fillcolor="#e58139"] ;
744 -> 745 ;
746 [label="gini = 0.0\nsamples = 5\nvalue = [5.607, 0.0]\nclass = Not Engaged", fillcolor="#e58139"] ;
744 -> 746 ;
747 [label="gini = -0.0\nsamples = 2\nvalue = [0.0, 1.805]\nclass = Engaged", fillcolor="#399de5"] ;
743 -> 747 ;
748 [label="gini = 0.0\nsamples = 7\nvalue = [0.0, 6.316]\nclass = Engaged", fillcolor="#399de5"] ;
742 -> 748 ;
749 [label=" p_5 <= 1.474\ngini = 0.089\nsamples = 79\nvalue = [3.364, 68.578]\nclass = Engaged", fillcolor="#43a2e6"] ;
741 -> 749 ;
750 [label=" p_19 <= 1.214\ngini = 0.061\nsamples = 78\nvalue = [2.243, 68.578]\nclass = Engaged", fillcolor="#3fa0e6"] ;
749 -> 750 ;
751 [label=" AU04_r <= -0.767\ngini = 0.032\nsamples = 76\nvalue = [1.121, 67.676]\nclass = Engaged", fillcolor="#3c9fe5"] ;
750 -> 751 ;
752 [label="gini = 0.0\nsamples = 74\nvalue = [0.0, 66.773]\nclass = Engaged", fillcolor="#399de5"] ;
751 -> 752 ;
753 [label=" AU04_r <= -0.738\ngini = 0.494\nsamples = 2\nvalue = [1.121, 0.902]\nclass = Not Engaged", fillcolor="#fae6d8"] ;
751 -> 753 ;
754 [label="gini = 0.0\nsamples = 1\nvalue = [1.121, 0.0]\nclass = Not Engaged", fillcolor="#e58139"] ;
753 -> 754 ;
755 [label="gini = 0.0\nsamples = 1\nvalue = [0.0, 0.902]\nclass = Engaged", fillcolor="#399de5"] ;
753 -> 755 ;
756 [label=" p_20 <= -0.149\ngini = 0.494\nsamples = 2\nvalue = [1.121, 0.902]\nclass = Not Engaged", fillcolor="#fae6d8"] ;
750 -> 756 ;
757 [label="gini = 0.0\nsamples = 1\nvalue = [1.121, 0.0]\nclass = Not Engaged", fillcolor="#e58139"] ;
756 -> 757 ;
758 [label="gini = 0.0\nsamples = 1\nvalue = [0.0, 0.902]\nclass = Engaged", fillcolor="#399de5"] ;
756 -> 758 ;
759 [label="gini = -0.0\nsamples = 1\nvalue = [1.121, 0.0]\nclass = Not Engaged", fillcolor="#e58139"] ;
749 -> 759 ;
760 [label=" AU15_r <= 4.61\ngini = 0.334\nsamples = 4\nvalue = [3.364, 0.902]\nclass = Not Engaged", fillcolor="#eca36e"] ;
740 -> 760 ;
761 [label="gini = 0.0\nsamples = 3\nvalue = [3.364, 0.0]\nclass = Not Engaged", fillcolor="#e58139"] ;
760 -> 761 ;
762 [label="gini = -0.0\nsamples = 1\nvalue = [0.0, 0.902]\nclass = Engaged", fillcolor="#399de5"] ;
760 -> 762 ;
763 [label=" AU17_r <= 0.076\ngini = 0.492\nsamples = 67\nvalue = [38.126, 29.777]\nclass = Not Engaged", fillcolor="#f9e3d4"] ;
621 -> 763 ;
764 [label=" p_20 <= 1.955\ngini = 0.459\nsamples = 54\nvalue = [35.884, 19.851]\nclass = Not Engaged", fillcolor="#f3c7a7"] ;
763 -> 764 ;
765 [label=" p_13 <= 0.427\ngini = 0.397\nsamples = 44\nvalue = [33.641, 12.633]\nclass = Not Engaged", fillcolor="#efb083"] ;
764 -> 765 ;
766 [label=" p_19 <= 1.68\ngini = 0.32\nsamples = 38\nvalue = [32.52, 8.121]\nclass = Not Engaged", fillcolor="#eba06a"] ;
765 -> 766 ;
767 [label=" p_2 <= -1.259\ngini = 0.245\nsamples = 35\nvalue = [32.52, 5.414]\nclass = Not Engaged", fillcolor="#e9965a"] ;
766 -> 767 ;
768 [label=" p_19 <= -0.399\ngini = 0.494\nsamples = 8\nvalue = [4.485, 3.609]\nclass = Not Engaged", fillcolor="#fae6d8"] ;
767 -> 768 ;
769 [label="gini = 0.0\nsamples = 4\nvalue = [0.0, 3.609]\nclass = Engaged", fillcolor="#399de5"] ;
768 -> 769 ;
770 [label="gini = 0.0\nsamples = 4\nvalue = [4.485, 0.0]\nclass = Not Engaged", fillcolor="#e58139"] ;
768 -> 770 ;
771 [label=" AU12_r <= -0.306\ngini = 0.114\nsamples = 27\nvalue = [28.034, 1.805]\nclass = Not Engaged", fillcolor="#e78946"] ;
767 -> 771 ;
772 [label=" p_7 <= -1.801\ngini = 0.06\nsamples = 26\nvalue = [28.034, 0.902]\nclass = Not Engaged", fillcolor="#e6853f"] ;
771 -> 772 ;
773 [label="gini = 0.0\nsamples = 1\nvalue = [0.0, 0.902]\nclass = Engaged", fillcolor="#399de5"] ;
772 -> 773 ;
774 [label="gini = 0.0\nsamples = 25\nvalue = [28.034, 0.0]\nclass = Not Engaged", fillcolor="#e58139"] ;
772 -> 774 ;
775 [label="gini = -0.0\nsamples = 1\nvalue = [0.0, 0.902]\nclass = Engaged", fillcolor="#399de5"] ;
771 -> 775 ;
776 [label=" p_5 <= -0.826\ngini = 0.0\nsamples = 3\nvalue = [0.0, 2.707]\nclass = Engaged", fillcolor="#399de5"] ;
766 -> 776 ;
777 [label="gini = 0.0\nsamples = 1\nvalue = [0.0, 0.902]\nclass = Engaged", fillcolor="#399de5"] ;
776 -> 777 ;
778 [label="gini = 0.0\nsamples = 2\nvalue = [0.0, 1.805]\nclass = Engaged", fillcolor="#399de5"] ;
776 -> 778 ;
779 [label=" p_11 <= 0.044\ngini = 0.319\nsamples = 6\nvalue = [1.121, 4.512]\nclass = Engaged", fillcolor="#6ab5eb"] ;
765 -> 779 ;
780 [label="gini = 0.0\nsamples = 1\nvalue = [1.121, 0.0]\nclass = Not Engaged", fillcolor="#e58139"] ;
779 -> 780 ;
781 [label="gini = -0.0\nsamples = 5\nvalue = [0.0, 4.512]\nclass = Engaged", fillcolor="#399de5"] ;
779 -> 781 ;
782 [label=" p_18 <= 0.434\ngini = 0.362\nsamples = 10\nvalue = [2.243, 7.219]\nclass = Engaged", fillcolor="#77bbed"] ;
764 -> 782 ;
783 [label="gini = 0.0\nsamples = 2\nvalue = [2.243, 0.0]\nclass = Not Engaged", fillcolor="#e58139"] ;
782 -> 783 ;
784 [label="gini = -0.0\nsamples = 8\nvalue = [0.0, 7.219]\nclass = Engaged", fillcolor="#399de5"] ;
782 -> 784 ;
785 [label=" AU23_r <= 0.376\ngini = 0.301\nsamples = 13\nvalue = [2.243, 9.926]\nclass = Engaged", fillcolor="#66b3eb"] ;
763 -> 785 ;
786 [label="gini = 0.0\nsamples = 11\nvalue = [0.0, 9.926]\nclass = Engaged", fillcolor="#399de5"] ;
785 -> 786 ;
787 [label=" p_26 <= -1.229\ngini = 0.0\nsamples = 2\nvalue = [2.243, 0.0]\nclass = Not Engaged", fillcolor="#e58139"] ;
785 -> 787 ;
788 [label="gini = 0.0\nsamples = 1\nvalue = [1.121, 0.0]\nclass = Not Engaged", fillcolor="#e58139"] ;
787 -> 788 ;
789 [label="gini = 0.0\nsamples = 1\nvalue = [1.121, 0.0]\nclass = Not Engaged", fillcolor="#e58139"] ;
787 -> 789 ;
790 [label=" p_1 <= 0.611\ngini = 0.459\nsamples = 49\nvalue = [32.52, 18.047]\nclass = Not Engaged", fillcolor="#f3c7a7"] ;
